%YAML:1.0
---
opencv_ml_svm:
   format: 3
   svmType: EPS_SVR
   kernel:
      type: LINEAR
   C: 1.0000000000000000e-02
   p: 1.0000000000000001e-01
   term_criteria: { epsilon:1.0000000000000000e-03, iterations:1000 }
   var_count: 2592
   sv_total: 1
   support_vectors:
      - [ -1.02756429e-03, 0., -1.43917920e-02, 0., -4.28629993e-03, 0.,
          -4.74822521e-03, 0., 0., -1.37900626e-02, -6.86486298e-03, 0.,
          2.34653940e-03, 0., -2.72097182e-03, 0., -4.61491290e-03, 0.,
          0., -6.33690855e-04, 0., 2.08896659e-02, 0., 4.06947546e-02,
          0., -4.41075396e-03, 0., 0., 0., 0., 0., 0., 0., 0., 0., 0.,
          -2.18650214e-02, 0., -7.47197215e-03, 0., 1.87859859e-03, 0.,
          -8.59561935e-03, 0., 0., -5.68974018e-03, -1.75546929e-02, 0.,
          4.73439228e-03, 0., 2.24291645e-02, 0., -4.96479124e-03, 0.,
          0., -1.20243365e-02, 0., 1.11051544e-03, 0., 4.17367779e-02,
          0., 3.43141588e-03, 0., 0., 0., 0., 0., 0., 0., 0., 0., 0.,
          -1.06503032e-02, 0., 0., 0., 3.91378300e-03, 0.,
          -6.35791977e-04, 0., 0., 0., -2.39676256e-02, 0.,
          1.14848500e-03, 0., 4.61278223e-02, 0., 3.88981844e-03, 0., 0.,
          1.85044727e-03, 0., -6.11165166e-03, 0., 3.35210040e-02, 0.,
          8.96868948e-03, 0., 0., 0., 0., 0., 0., 0., 0., 0., 0., 0., 0.,
          0., 0., -7.27539416e-03, 0., -2.20957566e-02, 0., 0., 0.,
          3.19958525e-03, 0., -2.85788067e-03, 0., 3.52636576e-02, 0.,
          9.12742503e-03, 0., 0., 4.74200211e-03, 0., 5.01139183e-03, 0.,
          1.75592583e-02, 0., -8.47676490e-03, 0., 0., 0., 0., 0., 0.,
          0., 0., 0., 0., 0., 0., -1.11994809e-02, 0., -6.88231317e-03,
          0., -9.34153702e-03, 0., 0., -1.02357091e-02, 3.80745227e-03,
          0., 3.37962946e-03, 0., 1.16539402e-02, 0., -7.14526279e-03,
          0., 0., 1.06317522e-02, 0., -1.38248713e-03, 0.,
          7.52207683e-03, 0., -3.43887019e-03, 0., 0., 0., 0., 0., 0.,
          0., 0., 0., 0., -9.48451925e-03, 0., 2.77242064e-03, 0.,
          8.23376141e-03, 0., -2.53467762e-04, 0., 0., -1.88554625e-03,
          8.96153040e-03, 0., -2.14468595e-03, 0., 3.58549785e-03, 0.,
          -2.93247006e-03, 0., 0., 1.18769491e-02, 0., -1.16921752e-03,
          0., 7.55133992e-03, 0., -2.31822953e-02, 0., 0., 0., 0., 0.,
          0., 0., 0., 0., 0., -1.93906517e-03, 0., 1.62004121e-02, 0.,
          1.77936698e-03, 0., -2.04157364e-02, 0., 0., 7.39729172e-03,
          1.19348560e-02, 0., -4.14356211e-04, 0., 7.92535115e-03, 0.,
          -2.37909798e-02, 0., 0., 5.17865736e-03, 0., -2.80194159e-04,
          0., 1.24688738e-03, 0., -1.15592340e-02, 0., 0., 0., 0., 0.,
          0., 0., 0., 0., 0., 7.88140949e-03, 0., 3.76161421e-03, 0.,
          1.44492546e-02, 0., -1.46513293e-02, 0., 0., 7.42230611e-03,
          1.92847254e-03, 0., -2.45321728e-03, 0., -2.07001320e-03, 0.,
          -1.94304064e-02, 0., 0., 1.08142067e-02, 0., -7.67240860e-03,
          0., -1.57507155e-02, 0., -4.74093435e-03, 0., 0., 0., 0., 0.,
          0., 0., 0., 0., 0., 7.52078835e-03, 0., 7.20301818e-04, 0.,
          1.31173618e-02, 0., 6.79075066e-03, 0., 0., 1.75943356e-02,
          6.80495752e-03, 0., -1.45159094e-02, 0., -3.68843265e-02, 0.,
          -1.26701891e-02, 0., 0., 1.56037323e-02, 0., 6.76992163e-03,
          0., -8.34054314e-03, 0., -1.57229733e-02, 0., 0., 0., 0., 0.,
          0., 0., 0., 0., 0., -5.33855427e-03, 0., -2.26994278e-03, 0.,
          -2.07647565e-03, 0., -3.70478467e-03, 0., 0., -5.76362992e-03,
          -1.33270456e-03, 0., 5.84533345e-03, 0., -3.12488945e-03, 0.,
          -1.01504857e-02, 0., 0., 2.35497523e-02, 0., -2.29828246e-03,
          0., 1.16001558e-03, 0., -1.40502565e-02, 0., 0., 0., 0., 0.,
          0., 0., 0., 0., 0., -8.33262503e-03, 0., 9.86204483e-04, 0.,
          1.18366079e-02, 0., -3.28587973e-03, 0., 0., -6.58727949e-03,
          1.33894905e-02, 0., -4.62743733e-03, 0., -4.63786302e-03, 0.,
          -1.27724772e-02, 0., 0., 3.22649721e-03, 0., -9.27834865e-03,
          0., -2.15200521e-03, 0., -3.19050578e-03, 0., 0., 0., 0., 0.,
          0., 0., 0., 0., 0., -1.05768926e-02, 0., 6.23485190e-04, 0.,
          2.66546439e-02, 0., 2.32851412e-03, 0., 0., 1.42052642e-03,
          2.24797986e-03, 0., -9.34431795e-03, 0., -3.04625719e-03, 0.,
          -6.80301292e-03, 0., 0., 2.31060316e-03, 0., -3.39847803e-02,
          0., 5.80571545e-03, 0., 4.11886402e-04, 0., 0., 0., 0., 0., 0.,
          0., 0., 0., 0., 1.39040535e-03, 0., -2.32140697e-03, 0.,
          1.99239124e-02, 0., 5.37583884e-03, 0., 0., 7.10420485e-04,
          2.85966182e-03, 0., -2.70770080e-02, 0., 6.87369704e-03, 0.,
          3.74385447e-04, 0., 0., 6.56370958e-03, 0., -1.16707394e-02,
          0., 4.54475218e-03, 0., -2.52902391e-03, 0., 0., 0., 0., 0.,
          0., 0., 0., 0., 0., 1.71187182e-03, 0., 3.31180374e-04, 0.,
          6.00260356e-03, 0., -6.86197076e-03, 0., 0., 5.80749335e-03,
          6.37536030e-03, 0., -9.57628619e-03, 0., 4.83621424e-03, 0.,
          -2.35811621e-03, 0., 0., 3.16360430e-03, 0., -2.03763577e-03,
          0., 2.52149533e-03, 0., -5.20230690e-03, 0., 0., 0., 0., 0.,
          0., 0., 0., 0., 0., 7.08676549e-03, 0., -1.75432023e-03, 0.,
          4.27701091e-03, 0., -2.53297295e-03, 0., 0., 9.63389780e-03,
          4.24657483e-03, 0., -1.54950819e-03, 0., 3.28958966e-03, 0.,
          -5.32198232e-03, 0., 0., 2.03463977e-04, 0., -4.65920009e-03,
          0., 3.85990413e-03, 0., -4.03100019e-03, 0., 0., 0., 0., 0.,
          0., 0., 0., 0., 0., 1.25737498e-02, 0., -4.96032881e-05, 0.,
          9.38525796e-03, 0., -2.04139333e-02, 0., 0., 6.66395482e-03,
          1.07488723e-03, 0., -4.11930354e-03, 0., 6.13809424e-03, 0.,
          -4.10925504e-03, 0., 0., 5.66834759e-04, 0., -3.12913139e-03,
          0., 2.18514795e-03, 0., -7.01112091e-04, 0., 0., 0., 0., 0.,
          0., 0., 0., 0., 0., 5.09806303e-03, 0., 1.51185167e-03, 0.,
          2.27854401e-03, 0., -1.67726558e-02, 0., 0., 1.31784286e-02,
          6.36617406e-05, 0., -4.18223022e-03, 0., 2.91447714e-03, 0.,
          -1.00851478e-03, 0., 0., 1.22917388e-02, 0., -2.63810973e-03,
          0., 1.06843859e-02, 0., -4.65533324e-03, 0., 0., 0., 0., 0.,
          0., 0., 0., 0., 0., 1.10451393e-02, 0., -6.99072937e-03, 0.,
          -1.64002050e-02, 0., -4.84907907e-03, 0., 0., 1.90251824e-02,
          7.44886883e-03, 0., -4.80032200e-03, 0., 8.18983838e-03, 0.,
          -7.69891823e-03, 0., 0., 1.44059183e-02, 0., -6.21510961e-04,
          0., -1.51298416e-03, 0., -9.95914638e-03, 0., 0., 0., 0., 0.,
          0., 0., 0., 0., 0., -7.74064276e-04, 0., 6.05229521e-03, 0.,
          -2.08935118e-03, 0., -8.61380436e-03, 0., 0., 2.18986310e-02,
          4.01387457e-03, 0., 4.58127732e-04, 0., -1.32325722e-03, 0.,
          -6.37946464e-03, 0., 0., 9.55337286e-03, 0., -1.43755944e-02,
          0., 5.90225495e-03, 0., -6.28722692e-03, 0., 0., 0., 0., 0.,
          0., 0., 0., 0., 0., 1.76422875e-02, 0., -7.99810223e-04, 0.,
          2.84257368e-03, 0., -8.59302841e-03, 0., 0., 5.23913885e-03,
          8.12547002e-03, 0., -1.18847648e-02, 0., 4.34451178e-03, 0.,
          -4.78026550e-03, 0., 0., 8.07523914e-03, 0., -3.79938539e-03,
          0., -1.00123025e-02, 0., -4.81306482e-03, 0., 0., 0., 0., 0.,
          0., 0., 0., 0., 0., 6.71638176e-03, 0., -6.10281341e-03, 0.,
          5.08993166e-03, 0., 7.30338099e-04, 0., 0., 7.35666882e-03,
          1.05895260e-02, 0., -4.45762975e-03, 0., -1.14176013e-02, 0.,
          -5.48133068e-03, 0., 0., 1.18845521e-04, 0., 4.25147219e-03,
          0., 5.09971799e-03, 0., -2.08016648e-03, 0., 0., 0., 0., 0.,
          0., 0., 0., 0., 0., 5.89173334e-03, 0., -2.54651979e-02, 0.,
          1.10847112e-02, 0., 6.31296018e-04, 0., 0., 8.90433043e-03,
          -1.69764098e-03, 0., 2.86391983e-03, 0., -1.72986696e-03, 0.,
          -3.66054033e-03, 0., 0., 1.11408380e-03, 0., 1.69348356e-03,
          0., 6.36380166e-03, 0., -1.48325053e-03, 0., 0., 0., 0., 0.,
          0., 0., 0., 0., 0., 5.97128645e-03, 0., -1.14152879e-02, 0.,
          3.90685443e-03, 0., -2.09431723e-03, 0., 0., 1.96257769e-03,
          4.61523887e-04, 0., 3.81590478e-04, 0., 2.82489485e-03, 0.,
          -1.57440477e-03, 0., 0., -4.36563976e-03, 0., 2.62410473e-03,
          0., 8.34602304e-03, 0., -3.58119933e-03, 0., 0., 0., 0., 0.,
          0., 0., 0., 0., 0., 4.64013172e-03, 0., -4.76568966e-04, 0.,
          5.04117552e-03, 0., -4.33018757e-03, 0., 0., 3.10258649e-04,
          -2.39564036e-03, 0., 9.72996745e-03, 0., 1.09190121e-02, 0.,
          -2.62808730e-03, 0., 0., -9.47699603e-03, 0., 1.97651898e-04,
          0., 3.57817765e-03, 0., -1.26205320e-02, 0., 0., 0., 0., 0.,
          0., 0., 0., 0., 0., 1.67698972e-03, 0., -2.31386907e-03, 0.,
          8.47188756e-03, 0., -3.75911617e-03, 0., 0., 2.97100865e-03,
          -9.07987915e-03, 0., 1.47039280e-03, 0., 5.94839035e-03, 0.,
          -1.58226863e-02, 0., 0., -5.08115580e-03, 0., 3.27485823e-03,
          0., 9.74482950e-03, 0., 2.29872880e-03, 0., 0., 0., 0., 0., 0.,
          0., 0., 0., 0., -1.02222636e-02, 0., -7.86591414e-03, 0.,
          8.87985807e-04, 0., -5.65403723e-04, 0., 0., 9.77790914e-03,
          -2.61465348e-02, 0., 2.30147759e-03, 0., 9.01112240e-03, 0.,
          2.22916040e-03, 0., 0., 1.52923623e-02, 0., -1.01439531e-04,
          0., 2.40659318e-03, 0., -1.19658676e-03, 0., 0., 0., 0., 0.,
          0., 0., 0., 0., 0., 9.29437671e-03, 0., -3.27329803e-03, 0.,
          9.78345610e-03, 0., -6.74072094e-03, 0., 0., 8.71329103e-03,
          1.50102098e-02, 0., -1.88254111e-03, 0., -1.76019699e-03, 0.,
          -2.31501157e-03, 0., 0., 1.20159599e-03, 0., -2.70146318e-03,
          0., -1.20573083e-03, 0., -6.99688040e-04, 0., 0., 0., 0., 0.,
          0., 0., 0., 0., 0., 4.15271800e-03, 0., -1.69335201e-03, 0.,
          -2.24227807e-03, 0., -8.93077254e-03, 0., 0., 3.60679533e-03,
          6.81437179e-03, 0., 5.22547308e-03, 0., 1.12717832e-02, 0.,
          -2.14455812e-03, 0., 0., 1.02860481e-02, 0., -7.77165755e-04,
          0., 8.79348163e-03, 0., -1.01844780e-02, 0., 0., 0., 0., 0.,
          0., 0., 0., 0., 0., 7.47266365e-03, 0., -1.35438535e-02, 0.,
          3.68270138e-03, 0., -5.42877242e-03, 0., 0., 8.73927958e-03,
          9.64488368e-03, 0., -5.04782656e-04, 0., 8.15697014e-03, 0.,
          -5.35542658e-03, 0., 0., 5.66721335e-03, 0., -1.01427329e-04,
          0., 1.79857982e-03, 0., -1.25996536e-03, 0., 0., 0., 0., 0.,
          0., 0., 0., 0., 0., 7.94645026e-03, 0., -9.62591358e-03, 0.,
          -2.05579866e-02, 0., -7.28727411e-03, 0., 0., -3.16745648e-03,
          4.40043863e-03, 0., -1.21899240e-03, 0., -1.39039787e-06, 0.,
          -3.10600968e-03, 0., 0., 2.57594278e-03, 0., -1.21656666e-03,
          0., 1.18670920e-02, 0., 1.65703502e-02, 0., 0., 0., 0., 0., 0.,
          0., 0., 0., 0., -1.94442039e-03, 0., 2.79953994e-04, 0.,
          -4.15249169e-03, 0., -4.01350902e-03, 0., 0., -1.03816146e-03,
          7.05657818e-04, 0., -5.26173552e-03, 0., 1.07840253e-02, 0.,
          1.37285795e-02, 0., 0., -4.64663422e-03, 0., 1.46174058e-03,
          0., 7.50310998e-03, 0., -8.69381148e-03, 0., 0., 0., 0., 0.,
          0., 0., 0., 0., 0., 6.38143858e-04, 0., 1.13671459e-03, 0.,
          6.23368984e-03, 0., -9.15152137e-04, 0., 0., -3.64818051e-03,
          -3.29909427e-03, 0., 2.47132801e-03, 0., 9.90056247e-03, 0.,
          -4.39848192e-03, 0., 0., -6.71672076e-03, 0., -6.95782155e-03,
          0., -4.76756692e-03, 0., -3.64725827e-03, 0., 0., 0., 0., 0.,
          0., 0., 0., 0., 0., -2.74875842e-04, 0., 1.94150917e-02, 0.,
          1.84190664e-02, 0., 3.51783587e-04, 0., 0., -7.51841394e-03,
          -3.07704555e-03, 0., -3.00266081e-03, 0., 5.82447508e-04, 0.,
          1.13640085e-03, 0., 0., -6.00068597e-03, 0., -5.36540430e-03,
          0., -8.79720226e-03, 0., -4.88703279e-03, 0., 0., 0., 0., 0.,
          0., 0., 0., 0., 0., -4.32624156e-03, 0., 6.53046509e-03, 0.,
          1.22757796e-02, 0., -1.36072226e-02, 0., 0., 5.84185473e-04,
          -5.30839898e-03, 0., -4.60473774e-03, 0., -8.83577578e-03, 0.,
          -4.57615545e-03, 0., 0., 1.73614221e-03, 0., -1.11426944e-02,
          0., 2.39860127e-03, 0., -2.97341117e-04, 0., 0., 0., 0., 0.,
          0., 0., 0., 0., 0., -8.39370023e-03, 0., 2.51807808e-03, 0.,
          9.09427833e-03, 0., 2.23857444e-03, 0., 0., 1.66867506e-02,
          -6.30101771e-04, 0., -1.39999874e-02, 0., -1.22162402e-02, 0.,
          -4.33240691e-03, 0., 0., 2.32291054e-02, 0., 1.31850212e-03,
          0., -1.69053692e-02, 0., -1.93759426e-03, 0., 0., 0., 0., 0.,
          0., 0., 0., 0., 0., 1.87686011e-02, 0., -3.85560235e-03, 0.,
          -4.81133210e-03, 0., -3.66372545e-03, 0., 0., 8.89540557e-03,
          2.95957662e-02, 0., 1.66547578e-03, 0., -1.79279149e-02, 0.,
          -2.09696381e-03, 0., 0., 4.92971449e-04, 0., -1.66801475e-02,
          0., -6.34349836e-03, 0., 0., 0., 0., 0., 0., 0., 0., 0., 0.,
          0., 0., 7.17132539e-03, 0., 4.22921497e-04, 0., 1.16539383e-02,
          0., -3.58760776e-03, 0., 0., -8.19045864e-03, 7.90034607e-03,
          0., -3.62488325e-03, 0., 1.40888859e-02, 0., 1.10158150e-03,
          0., 0., -1.29892572e-03, 0., 2.46554334e-03, 0.,
          4.45919344e-03, 0., -1.14625292e-02, 0., 0., 0., 0., 0., 0.,
          0., 0., 0., 0., -1.02138678e-02, 0., -6.88578875e-04, 0.,
          5.45715587e-03, 0., -7.47765834e-03, 0., 0., 3.06319329e-03,
          -1.02770340e-03, 0., 2.98379175e-03, 0., 8.81257001e-03, 0.,
          -5.80365187e-04, 0., 0., 5.44302212e-03, 0., 1.27474510e-03,
          0., 6.39772601e-03, 0., -3.27271922e-03, 0., 0., 0., 0., 0.,
          0., 0., 0., 0., 0., 8.47536721e-04, 0., -3.47217335e-03, 0.,
          -5.11733536e-03, 0., -1.03701307e-02, 0., 0., -1.57890201e-03,
          4.28081211e-03, 0., 4.70182742e-04, 0., 4.96464642e-03, 0.,
          -3.35274637e-03, 0., 0., 7.61733903e-03, 0., -2.49000010e-03,
          0., 8.28977395e-03, 0., 4.88806574e-04, 0., 0., 0., 0., 0., 0.,
          0., 0., 0., 0., -8.63937661e-04, 0., -7.86909368e-03, 0.,
          9.39332973e-03, 0., 1.02759916e-02, 0., 0., -5.99467056e-03,
          6.84283813e-03, 0., -3.73921846e-03, 0., 7.22195953e-03, 0.,
          -3.20400373e-04, 0., 0., -7.44869374e-03, 0., -1.45910829e-02,
          0., 4.57603717e-03, 0., 8.45692679e-03, 0., 0., 0., 0., 0., 0.,
          0., 0., 0., 0., -3.60983820e-03, 0., 1.47552544e-03, 0.,
          7.76634365e-03, 0., -5.98109420e-03, 0., 0., -7.20921718e-03,
          -2.52208998e-03, 0., -9.80574545e-03, 0., 6.57393923e-03, 0.,
          9.41874739e-03, 0., 0., -4.13296977e-03, 0., -9.81967337e-03,
          0., 1.16975848e-02, 0., 2.52770502e-02, 0., 0., 0., 0., 0., 0.,
          0., 0., 0., 0., -6.14902470e-03, 0., -5.69406012e-03, 0.,
          -3.03143100e-03, 0., -3.79081047e-03, 0., 0., -1.01581672e-02,
          1.58724957e-03, 0., -8.39964394e-03, 0., 1.58921964e-02, 0.,
          3.21756192e-02, 0., 0., 1.45228044e-03, 0., 1.57840957e-03, 0.,
          5.36671141e-03, 0., 9.68581252e-03, 0., 0., 0., 0., 0., 0., 0.,
          0., 0., 0., -1.04835648e-02, 0., -9.95778851e-03, 0.,
          -1.50084486e-02, 0., -7.48438109e-03, 0., 0., -3.77231889e-04,
          3.43377469e-03, 0., 2.34730262e-03, 0., 9.05486476e-03, 0.,
          1.57083161e-02, 0., 0., 1.65253375e-02, 0., 3.42871499e-04, 0.,
          1.07957646e-02, 0., 1.00306217e-02, 0., 0., 0., 0., 0., 0., 0.,
          0., 0., 0., -6.35828590e-03, 0., -2.73960102e-02, 0.,
          -2.30715685e-02, 0., -7.11127883e-03, 0., 0., 2.05099005e-02,
          1.13186510e-02, 0., -2.75161263e-04, 0., 5.85507229e-03, 0.,
          6.73106126e-03, 0., 0., 3.24499458e-02, 0., 6.87925145e-03, 0.,
          3.25893401e-03, 0., 1.80995569e-03, 0., 0., 0., 0., 0., 0., 0.,
          0., 0., 0., 1.31064132e-02, 0., -7.84432143e-03, 0.,
          -2.87234541e-02, 0., -3.04310210e-03, 0., 0., -2.64361361e-03,
          4.72032391e-02, 0., 9.96568892e-03, 0., 3.42515460e-03, 0.,
          2.21850001e-03, 0., 0., 7.15059694e-03, 0., 0., 0., 0., 0., 0.,
          0., 0., 0., 0., 0., 0., 0., 0., 0., 0., 6.39140094e-03, 0.,
          -2.76023592e-03, 0., 1.15314107e-02, 0., 6.28061825e-04, 0.,
          0., -6.95591676e-04, 2.75226706e-03, 0., 3.38437548e-03, 0.,
          1.69841871e-02, 0., -6.08566916e-03, 0., 0., 4.67392104e-03,
          0., -3.72003950e-03, 0., -2.30145859e-04, 0., -4.07762453e-03,
          0., 0., 0., 0., 0., 0., 0., 0., 0., 0., 1.51538406e-03, 0.,
          2.25203135e-03, 0., 6.30497932e-03, 0., -4.21893410e-03, 0.,
          0., 1.94201386e-03, 5.15669491e-03, 0., -4.97480761e-03, 0.,
          -1.24020956e-03, 0., -6.96087896e-04, 0., 0., 5.16715273e-03,
          0., -1.02513675e-02, 0., 6.50412962e-03, 0., -2.82348436e-03,
          0., 0., 0., 0., 0., 0., 0., 0., 0., 0., 3.26440996e-03, 0.,
          2.94768193e-04, 0., 2.73066969e-03, 0., -5.30316401e-03, 0.,
          0., 7.45066535e-03, 5.02374303e-03, 0., -1.29335737e-02, 0.,
          3.35341669e-03, 0., -4.29080985e-03, 0., 0., -1.05040092e-02,
          0., -5.58380317e-03, 0., 1.72889438e-02, 0., -6.78060064e-03,
          0., 0., 0., 0., 0., 0., 0., 0., 0., 0., 7.46267522e-03, 0.,
          -4.14524274e-03, 0., 7.97517132e-03, 0., -1.20597455e-04, 0.,
          0., -5.08037349e-03, -2.26289104e-03, 0., -4.12082486e-03, 0.,
          1.71318538e-02, 0., -4.77707991e-03, 0., 0., -2.33182893e-03,
          0., -1.48904407e-02, 0., 6.34842226e-03, 0., -3.29196826e-03,
          0., 0., 0., 0., 0., 0., 0., 0., 0., 0., -8.22704565e-03, 0.,
          -1.60396155e-02, 0., 4.77172155e-03, 0., 7.73783587e-03, 0.,
          0., -3.85476556e-03, -7.38075760e-04, 0., -1.41457403e-02, 0.,
          3.43829743e-03, 0., -2.68121436e-03, 0., 0., 6.35627750e-03,
          0., -9.50744841e-03, 0., 8.04180745e-03, 0., 1.68632658e-03,
          0., 0., 0., 0., 0., 0., 0., 0., 0., 0., -2.17325222e-02, 0.,
          -2.08159406e-02, 0., 1.10592628e-02, 0., 2.66279243e-02, 0.,
          0., -4.36444581e-03, 6.19506929e-03, 0., -1.29108224e-02, 0.,
          8.85921624e-03, 0., 1.88288046e-03, 0., 0., 6.05694018e-03, 0.,
          -1.66142511e-03, 0., 4.23836894e-03, 0., 1.84391090e-03, 0.,
          0., 0., 0., 0., 0., 0., 0., 0., 0., -2.89806109e-02, 0.,
          -9.85761057e-04, 0., -3.48575972e-03, 0., 9.00178403e-03, 0.,
          0., 1.27604529e-02, 6.92763925e-03, 0., -4.82410891e-03, 0.,
          5.78763895e-03, 0., 2.54003238e-03, 0., 0., 1.39904041e-02, 0.,
          0., 0., 1.91529412e-02, 0., 0., 0., 0., 0., 0., 0., 0., 0., 0.,
          0., 0., 1.04148053e-02, 0., -6.25265762e-03, 0.,
          -1.99761242e-02, 0., 3.75209330e-03, 0., 0., 2.94692162e-02,
          1.13495318e-02, 0., 0., 0., 1.56948958e-02, 0., 0., 0., 0.,
          2.18888950e-02, 0., 7.05508003e-03, 0., 1.60413247e-03, 0., 0.,
          0., 0., 0., 0., 0., 0., 0., 0., 0., 0., 4.75701541e-02, 0.,
          2.92863813e-04, 0., -5.68966055e-03, 0., 2.13207817e-03, 0.,
          0., 7.03876279e-03, 3.48807797e-02, 0., 1.15557732e-02, 0.,
          2.26234784e-03, 0., 0., 0., 0., 4.39875526e-03, 0., 0., 0., 0.,
          0., 0., 0., 0., 0., 0., 0., 0., 0., 0., 0., 0., 2.92677269e-03,
          0., 5.06793940e-03, 0., 2.47377809e-02, 0., -6.45375671e-03,
          0., 0., 5.17808925e-03, 1.17864821e-03, 0., 1.81182742e-03, 0.,
          6.88455906e-03, 0., 3.66831897e-03, 0., 0., 1.82006345e-03, 0.,
          1.84630590e-05, 0., 6.91479910e-03, 0., 1.89341744e-03, 0., 0.,
          0., 0., 0., 0., 0., 0., 0., 0., 6.96277944e-03, 0.,
          -1.84398494e-03, 0., 8.49352870e-03, 0., 2.28782720e-03, 0.,
          0., 6.44621952e-03, 1.98024325e-03, 0., 1.81814212e-05, 0.,
          7.37608597e-03, 0., 2.05717236e-03, 0., 0., 0., 0.,
          1.98341766e-03, 0., 9.04309843e-03, 0., -1.28723402e-02, 0.,
          0., 0., 0., 0., 0., 0., 0., 0., 0., 5.63396607e-03, 0.,
          -9.75002721e-03, 0., 9.02501773e-03, 0., -8.97776394e-04, 0.,
          0., 2.61638034e-03, 0., 0., 1.78376900e-03, 0., 8.66085105e-03,
          0., -7.85261951e-03, 0., 0., -8.54228996e-03, 0.,
          -4.57751378e-03, 0., 3.84052121e-03, 0., -2.96610146e-04, 0.,
          0., 0., 0., 0., 0., 0., 0., 0., 0., 7.04651698e-04, 0.,
          -3.10437242e-03, 0., 1.85203012e-02, 0., -5.65245096e-03, 0.,
          0., 2.24746834e-03, -9.04388353e-03, 0., -5.12646744e-03, 0.,
          3.63554177e-03, 0., 1.12329854e-03, 0., 0., -5.45116281e-03,
          0., -6.47914642e-03, 0., 4.63949330e-03, 0., 1.04150493e-02,
          0., 0., 0., 0., 0., 0., 0., 0., 0., 0., -1.29591767e-03, 0.,
          -2.71645077e-02, 0., -4.36824979e-04, 0., -3.56361503e-03, 0.,
          0., 8.29855539e-03, -7.83124752e-03, 0., -7.91798811e-03, 0.,
          5.38150035e-03, 0., 1.09042181e-02, 0., 0., 1.27696823e-02, 0.,
          -4.66497755e-03, 0., 7.44037190e-03, 0., 7.22968113e-03, 0.,
          0., 0., 0., 0., 0., 0., 0., 0., 0., 4.26419050e-04, 0.,
          -3.20003591e-02, 0., 3.07483040e-03, 0., 2.55000917e-03, 0.,
          0., 6.75314618e-03, 1.40857613e-02, 0., -7.78955128e-03, 0.,
          7.82796741e-03, 0., 8.55723768e-03, 0., 0., 1.18664298e-02, 0.,
          2.61919643e-03, 0., 1.28172347e-02, 0., 5.77160995e-03, 0., 0.,
          0., 0., 0., 0., 0., 0., 0., 0., -5.43466723e-03, 0.,
          -2.34791543e-02, 0., 3.22285225e-03, 0., 2.51664734e-03, 0.,
          0., 1.33919520e-02, 1.20057110e-02, 0., 2.69169197e-03, 0.,
          1.29688689e-02, 0., 5.78837981e-03, 0., 0., 1.89850479e-02, 0.,
          4.02901834e-03, 0., 1.52134392e-02, 0., 0., 0., 0., 0., 0., 0.,
          0., 0., 0., 0., 0., 1.28814401e-02, 0., 0., 0., 1.75966788e-02,
          0., 0., 0., 0., 2.50813179e-02, 1.82506591e-02, 0.,
          3.86489346e-03, 0., 1.45620154e-02, 0., 0., 0., 0.,
          1.65530145e-02, 0., 5.93540957e-03, 0., 0., 0., 0., 0., 0., 0.,
          0., 0., 0., 0., 0., 0., 0., 5.04247062e-02, 0., 1.68086644e-02,
          0., 3.29147885e-03, 0., 0., 0., 0., 6.38500415e-03,
          3.42464074e-02, 0., 1.18356356e-02, 0., 0., 0., 0., 0., 0.,
          1.44995563e-03, 0., 0., 0., 0., 0., 0., 0., 0., 0., 0., 0., 0.,
          0., 0., 0., 0., 3.27380630e-03, 0., 4.09991108e-03, 0.,
          1.60790533e-02, 0., 8.33428092e-03, 0., 0., 3.94747080e-03, 0.,
          0., 0., 0., 0., 0., 0., 0., 0., 0., 0., 0., 0., 0., 0., 0., 0.,
          0., 0., 0., 0., 0., 0., 0., 0., 0., 4.21852199e-03, 0.,
          3.03178640e-05, 0., 1.59433428e-02, 0., 4.46841307e-03, 0., 0.,
          0., 0., 0., 0., 0., 0., 0., 0., 0., 0., 0., 0., 0., 0.,
          -1.22349465e-03, 0., -8.76100676e-04, 0., 0., 0., 0., 0., 0.,
          0., 0., 0., 0., 0., 0., 3.75699112e-03, 0., 1.85912456e-02, 0.,
          -1.09534739e-02, 0., 0., -1.26750972e-02, 0., 0., 0., 0.,
          -4.00160992e-04, 0., -2.70485500e-04, 0., 0., 0., 0.,
          -1.94318930e-03, 0., -6.94262097e-03, 0., -2.15798523e-03, 0.,
          0., 0., 0., 0., 0., 0., 0., 0., 0., -1.57349128e-02, 0.,
          -9.70994681e-03, 0., 8.62619001e-03, 0., 4.40767733e-03, 0.,
          0., -7.10453745e-03, 0., 0., -1.49334839e-03, 0.,
          -5.95557643e-03, 0., -1.41084334e-03, 0., 0., 0., 0.,
          8.53947073e-04, 0., 1.95689892e-04, 0., 1.26516810e-02, 0., 0.,
          0., 0., 0., 0., 0., 0., 0., 0., -2.09009256e-02, 0.,
          -1.84849501e-02, 0., -3.57527472e-03, 0., 7.93255866e-03, 0.,
          0., 1.34573337e-02, 0., 0., -1.42624500e-04, 0.,
          -5.03858144e-04, 0., 5.94811747e-03, 0., 0., 1.06086992e-02,
          0., 4.43334167e-04, 0., 1.72440037e-02, 0., 1.22353183e-02, 0.,
          0., 0., 0., 0., 0., 0., 0., 0., 0., 1.27065287e-03, 0.,
          -2.69991085e-02, 0., -1.42409676e-03, 0., 7.03120744e-03, 0.,
          0., 1.01534892e-02, 9.80667584e-03, 0., 3.73498537e-04, 0.,
          1.41585320e-02, 0., 1.04781622e-02, 0., 0., 6.07196474e-03, 0.,
          0., 0., 2.25029346e-02, 0., 1.95194245e-03, 0., 0., 0., 0., 0.,
          0., 0., 0., 0., 0., 1.02632698e-02, 0., 2.10148236e-03, 0.,
          1.09308744e-02, 0., 5.19508123e-03, 0., 0., 1.58052500e-02,
          6.15380751e-03, 0., 0., 0., 2.24381108e-02, 0., 1.89569371e-03,
          0., 0., 9.56523139e-03, 0., 1.17446370e-02, 0., 1.11156320e-02,
          0., 3.21260217e-04, 0., 0., 0., 0., 0., 0., 0., 0., 0., 0.,
          2.02060714e-02, 0., 4.26549511e-03, 0., 1.62768178e-02, 0., 0.,
          0., 0., 1.83874592e-02, 1.24527710e-02, 0., 1.55059397e-02, 0.,
          1.50305806e-02, 0., 4.28279425e-04, 0., 0., 9.96019319e-03, 0.,
          4.94254334e-03, 0., 3.29337840e-04, 0., 0., 0., 0., 0., 0., 0.,
          0., 0., 0., 0., 0., 6.54294565e-02, 0., 2.18162891e-02, 0., 0.,
          0., 0., 0., 0., 1.80982065e-03, 2.42271926e-02, 0.,
          1.05030397e-02, 0., 6.56054413e-04, 0., 0., 0., 0., 0., 0., 0.,
          0., 0., 0., 0., 0., 0., 0., 0., 0., 0., 0., 0., 0., 0. ]
   uncompressed_sv_total: 36
   uncompressed_support_vectors:
      - [ 0., 0., 0., 0., 0., 0., 0., 0., 0., 0., 0., 0., 0., 0., 0., 0.,
          0., 0., 0., 1.52012005e-01, 0., 4.29954916e-01, 0.,
          4.18033034e-01, 0., 0., 0., 0., 0., 0., 0., 0., 0., 0., 0., 0.,
          0., 0., 0., 0., 0., 0., 0., 0., 0., 0., 7.41144717e-02, 0.,
          2.09627405e-01, 0., 2.03814805e-01, 0., 0., 0., 0.,
          3.70572358e-02, 0., 2.62034219e-02, 0., 3.70572358e-01, 0.,
          7.86102638e-02, 0., 0., 0., 0., 0., 0., 0., 0., 0., 0., 0., 0.,
          0., 0., 0., 0., 0., 0., 0., 0., 4.34111953e-02, 0.,
          3.06963492e-02, 0., 4.34111923e-01, 0., 9.20890421e-02, 0., 0.,
          2.17055976e-02, 0., 0., 0., 3.47289562e-01, 0., 3.06963492e-02,
          0., 0., 0., 0., 0., 0., 0., 0., 0., 0., 0., 0., 0., 0., 0., 0.,
          0., 0., 0., 0., 2.41049360e-02, 0., 0., 0., 3.85678977e-01, 0.,
          3.40895280e-02, 0., 0., 4.82098721e-02, 0., 1.36358112e-01, 0.,
          3.37469101e-01, 0., 3.40895280e-02, 0., 0., 0., 0., 0., 0., 0.,
          0., 0., 0., 0., 0., 0., 0., 0., 0., 0., 0., 0., 0.,
          3.65444161e-02, 0., 1.03363216e-01, 0., 2.55810916e-01, 0.,
          2.58408040e-02, 0., 0., 9.13610458e-02, 0., 1.03363216e-01, 0.,
          3.28899741e-01, 0., 0., 0., 0., 0., 0., 0., 0., 0., 0., 0., 0.,
          0., 0., 0., 0., 4.09762152e-02, 0., 0., 0., 0., 0.,
          6.82936907e-02, 0., 7.72654936e-02, 0., 2.45857283e-01, 0., 0.,
          0., 0., 1.63904861e-01, 0., 1.93163734e-02, 0., 1.63904861e-01,
          0., 0., 0., 0., 0., 0., 0., 0., 0., 0., 0., 0., 0., 0.,
          1.65490568e-01, 0., 2.34038997e-02, 0., 0., 0., 0.,
          8.19136500e-02, 1.40423402e-01, 0., 1.65490564e-02, 0.,
          1.40423402e-01, 0., 0., 0., 0., 9.36155990e-02, 0.,
          4.96471636e-02, 0., 9.36155990e-02, 0., 0., 0., 0., 0., 0., 0.,
          0., 0., 0., 0., 0., 8.64511654e-02, 0., 6.98630959e-02, 0.,
          1.35851830e-01, 0., 0., 0., 0., 3.70505005e-02, 9.88013372e-02,
          0., 5.23973182e-02, 0., 9.88013372e-02, 0., 0., 0., 0.,
          1.60552174e-01, 0., 0., 0., 7.41010010e-02, 0., 6.98630959e-02,
          0., 0., 0., 0., 0., 0., 0., 0., 0., 0., 3.56965922e-02, 0., 0.,
          0., 9.51909125e-02, 0., 1.68275349e-02, 0., 0., 1.18988641e-01,
          1.54685229e-01, 0., 0., 0., 7.13931844e-02, 0., 6.73101395e-02,
          0., 0., 1.66584089e-01, 0., 8.41376781e-02, 0., 2.37977281e-02,
          0., 0., 0., 0., 0., 0., 0., 0., 0., 0., 0., 0., 0., 0., 0., 0.,
          0., 0., 0., 0., 0., 6.75524995e-02, 0., 0., 9.55336615e-02, 0.,
          0., 0., 0., 0., 0., 2.36433744e-01, 0., 7.16502368e-02, 0.,
          1.51993126e-01, 0., 0., 0., 0., 0., 0., 0., 0., 0., 0., 0., 0.,
          4.07989956e-02, 0., 1.15396991e-01, 0., 1.12197235e-01, 0., 0.,
          0., 0., 2.03994978e-02, 1.42796487e-01, 0., 4.32738662e-02, 0.,
          9.17977393e-02, 0., 0., 0., 0., 4.07989956e-02, 0., 0., 0.,
          1.01997487e-01, 0., 2.88492460e-02, 0., 0., 0., 0., 0., 0., 0.,
          0., 0., 0., 2.78166067e-02, 0., 1.96693111e-02, 0.,
          2.78166085e-01, 0., 5.90079315e-02, 0., 0., 1.39083033e-02,
          5.56332134e-02, 0., 0., 0., 1.39083043e-01, 0., 3.93386222e-02,
          0., 0., 5.56332134e-02, 0., 0., 0., 6.95415214e-02, 0., 0., 0.,
          0., 0., 0., 0., 0., 0., 0., 0., 0., 1.37959048e-02, 0., 0., 0.,
          2.20734477e-01, 0., 1.95103548e-02, 0., 0., 2.75918096e-02,
          5.51836193e-02, 0., 0., 0., 6.89795241e-02, 0., 0., 0., 0.,
          1.24163143e-01, 0., 0., 0., 1.79346755e-01, 0., 0., 0., 0., 0.,
          0., 0., 0., 0., 0., 0., 0., 2.13383585e-02, 0., 6.03539869e-02,
          0., 1.49368510e-01, 0., 1.50884967e-02, 0., 0., 5.33458926e-02,
          9.60226059e-02, 0., 0., 0., 1.38699323e-01, 0., 0., 0., 0.,
          1.17360964e-01, 0., 0., 0., 9.60226059e-02, 0., 0., 0., 0., 0.,
          0., 0., 0., 0., 0., 0., 0., 5.27827479e-02, 0., 5.97168617e-02,
          0., 1.90017894e-01, 0., 0., 0., 0., 1.26678601e-01,
          1.16122052e-01, 0., 0., 0., 9.50089470e-02, 0., 0., 0., 0.,
          4.22261991e-02, 0., 5.97168617e-02, 0., 1.16122052e-01, 0., 0.,
          0., 0., 0., 0., 0., 0., 0., 0., 0., 0., 1.66338295e-01, 0.,
          1.96031556e-02, 0., 1.66338295e-01, 0., 0., 0., 0.,
          1.10892199e-01, 5.54460995e-02, 0., 7.84126222e-02, 0.,
          1.52476773e-01, 0., 0., 0., 0., 2.77230497e-02, 0., 0., 0.,
          1.38615249e-02, 0., 3.92063111e-02, 0., 0., 0., 0., 0., 0., 0.,
          0., 0., 0., 1.14731647e-01, 0., 6.08456396e-02, 0.,
          1.14731647e-01, 0., 0., 0., 0., 1.86438933e-01, 2.86829118e-02,
          0., 0., 0., 1.43414559e-02, 0., 4.05637622e-02, 0., 0.,
          1.00390196e-01, 0., 0., 0., 1.72097474e-01, 0., 0., 0., 0., 0.,
          0., 0., 0., 0., 0., 0., 0., 1.46799192e-01, 0., 0., 0.,
          6.77534714e-02, 0., 6.38785809e-02, 0., 0., 1.58091426e-01,
          7.90457129e-02, 0., 0., 0., 1.35506943e-01, 0., 0., 0., 0.,
          2.14552656e-01, 0., 3.19392905e-02, 0., 0., 0., 0., 0., 0., 0.,
          0., 0., 0., 0., 0., 0., 0., 0., 0., 7.70848468e-02, 0., 0., 0.,
          0., 0., 0., 1.90775275e-01, 0., 0., 1.15627281e-01, 0., 0., 0.,
          0., 0., 0., 2.18028888e-01, 0., 0., 0., 2.18028888e-01, 0., 0.,
          0., 0., 0., 0., 0., 0., 0., 0., 0., 0., 1.64568290e-01, 0.,
          4.98717204e-02, 0., 1.05793908e-01, 0., 0., 0., 0.,
          4.70195152e-02, 1.88078061e-01, 0., 0., 0., 1.88078061e-01, 0.,
          0., 0., 0., 8.22841451e-02, 0., 0., 0., 2.35097576e-02, 0., 0.,
          0., 0., 0., 0., 0., 0., 0., 0., 0., 0., 7.59635195e-02, 0., 0.,
          0., 1.89908803e-01, 0., 5.37143163e-02, 0., 0., 7.59635195e-02,
          1.32936165e-01, 0., 0., 0., 3.79817598e-02, 0., 0., 0., 0.,
          5.69726378e-02, 0., 5.37143163e-02, 0., 2.27890551e-01, 0., 0.,
          0., 0., 0., 0., 0., 0., 0., 0., 0., 0., 5.32324463e-02, 0., 0.,
          0., 6.65405542e-02, 0., 0., 0., 0., 1.19773000e-01,
          3.99243347e-02, 0., 3.76410224e-02, 0., 1.59697339e-01, 0., 0.,
          0., 0., 2.66162232e-02, 0., 1.50564104e-01, 0., 1.73005447e-01,
          0., 0., 0., 0., 0., 0., 0., 0., 0., 0., 0., 0., 7.69618079e-02,
          0., 0., 0., 1.11167051e-01, 0., 0., 0., 0., 9.40644294e-02,
          1.71026234e-02, 0., 9.67470556e-02, 0., 1.11167051e-01, 0., 0.,
          0., 0., 3.42052467e-02, 0., 1.57213956e-01, 0., 1.88128859e-01,
          0., 3.62801403e-02, 0., 0., 0., 0., 0., 0., 0., 0., 0., 0.,
          9.58442315e-02, 0., 0., 0., 7.84180090e-02, 0., 0., 0., 0.,
          3.48524489e-02, 3.48524489e-02, 0., 1.60188630e-01, 0.,
          1.91688463e-01, 0., 3.69665995e-02, 0., 0., 3.48524489e-02, 0.,
          7.39332139e-02, 0., 1.13270462e-01, 0., 0., 0., 0., 0., 0., 0.,
          0., 0., 0., 0., 0., 5.52060381e-02, 0., 7.80731216e-02, 0.,
          1.51816607e-01, 0., 0., 0., 0., 2.76030190e-02, 5.52060381e-02,
          0., 1.17109694e-01, 0., 1.79419622e-01, 0., 0., 0., 0.,
          5.52060381e-02, 0., 7.80731216e-02, 0., 1.10412076e-01, 0.,
          3.90365608e-02, 0., 0., 0., 0., 0., 0., 0., 0., 0., 0.,
          3.02379075e-02, 0., 0., 0., 1.51189538e-02, 0., 4.27628607e-02,
          0., 0., 1.05832681e-01, 6.04758151e-02, 0., 8.55257213e-02, 0.,
          1.20951630e-01, 0., 4.27628607e-02, 0., 0., 1.36070579e-01, 0.,
          4.27628607e-02, 0., 1.36070579e-01, 0., 0., 0., 0., 0., 0., 0.,
          0., 0., 0., 0., 0., 8.60863402e-02, 0., 0., 0., 1.47576585e-01,
          0., 0., 0., 0., 2.33662933e-01, 1.10682443e-01, 0.,
          3.47841345e-02, 0., 1.10682443e-01, 0., 0., 0., 0.,
          1.72172680e-01, 0., 6.95682690e-02, 0., 0., 0., 0., 0., 0., 0.,
          0., 0., 0., 0., 0., 0., 0., 0., 0., 1.04573056e-01, 0., 0., 0.,
          0., 0., 0., 1.97184831e-01, 6.16202615e-02, 0., 6.97153658e-02,
          0., 6.16202615e-02, 0., 0., 0., 0., 1.84860781e-01, 0., 0., 0.,
          1.23240523e-01, 0., 0., 0., 0., 0., 0., 0., 0., 0., 0., 0., 0.,
          1.65828392e-01, 0., 0., 0., 1.65828392e-01, 0., 0., 0., 0.,
          7.25499243e-02, 1.55464113e-01, 0., 0., 0., 1.03642747e-01, 0.,
          0., 0., 0., 1.45099849e-01, 0., 1.46572972e-02, 0.,
          8.29141960e-02, 0., 7.32864887e-02, 0., 0., 0., 0., 0., 0., 0.,
          0., 0., 0., 7.27013797e-02, 0., 0., 0., 2.07718238e-02, 0., 0.,
          0., 0., 3.11577357e-02, 1.45402759e-01, 0., 1.46878967e-02, 0.,
          8.30872953e-02, 0., 7.34394863e-02, 0., 0., 1.14245027e-01, 0.,
          5.87515868e-02, 0., 1.14245027e-01, 0., 1.17503189e-01, 0., 0.,
          0., 0., 0., 0., 0., 0., 0., 0., 2.94783637e-02, 0.,
          2.77924687e-02, 0., 1.17913455e-01, 0., 0., 0., 0.,
          1.96522437e-02, 1.08087339e-01, 0., 5.55849373e-02, 0.,
          1.08087339e-01, 0., 1.11169882e-01, 0., 0., 4.91306074e-02, 0.,
          0., 0., 7.86089748e-02, 0., 5.55849373e-02, 0., 0., 0., 0., 0.,
          0., 0., 0., 0., 0., 1.94475688e-02, 0., 1.10012069e-01, 0.,
          1.26409203e-01, 0., 0., 0., 0., 3.88951376e-02, 4.86189239e-02,
          0., 0., 0., 7.77902752e-02, 0., 5.50060309e-02, 0., 0.,
          1.94475688e-02, 0., 2.75030155e-02, 0., 2.91713532e-02, 0.,
          1.37515077e-02, 0., 0., 0., 0., 0., 0., 0., 0., 0., 0.,
          4.63202409e-02, 0., 2.12896824e-01, 0., 2.54761308e-01, 0.,
          4.91300300e-02, 0., 0., 4.63202409e-02, 2.31601205e-02, 0.,
          3.27533558e-02, 0., 3.47401798e-02, 0., 1.63766779e-02, 0., 0.,
          3.47401798e-02, 0., 0., 0., 0., 0., 0., 0., 0., 0., 0., 0., 0.,
          0., 0., 0., 0., 7.41144717e-02, 0., 1.57220542e-01, 0.,
          2.40872040e-01, 0., 0., 0., 0., 7.41144717e-02, 5.55858538e-02,
          0., 0., 0., 0., 0., 0., 0., 0., 3.70572358e-02, 0., 0., 0.,
          5.55858538e-02, 0., 0., 0., 0., 0., 0., 0., 0., 0., 0., 0., 0.,
          6.10162094e-02, 0., 8.62899497e-02, 0., 1.22032419e-01, 0.,
          4.31449749e-02, 0., 0., 1.37286469e-01, 3.05081047e-02, 0., 0.,
          0., 4.57621589e-02, 0., 0., 0., 0., 1.67794585e-01, 0.,
          6.47174567e-02, 0., 6.10162094e-02, 0., 0., 0., 0., 0., 0., 0.,
          0., 0., 0., 0., 0., 1.41225383e-01, 0., 4.43828553e-02, 0.,
          1.41225383e-01, 0., 0., 0., 0., 2.19683930e-01, 1.72608793e-01,
          0., 6.65742755e-02, 0., 6.27668351e-02, 0., 0., 0., 0.,
          6.27668351e-02, 0., 0., 0., 0., 0., 0., 0., 0., 0., 0., 0., 0.,
          0., 0., 0., 0., 7.30083883e-02, 0., 8.25995654e-02, 0.,
          7.30083883e-02, 0., 0., 0., 0., 2.19025180e-01, 5.84067143e-02,
          0., 0., 0., 1.31415099e-01, 0., 0., 0., 0., 1.02211744e-01, 0.,
          0., 0., 7.30083883e-02, 0., 4.12997827e-02, 0., 0., 0., 0., 0.,
          0., 0., 0., 0., 0., 1.70179695e-01, 0., 0., 0., 1.13453127e-01,
          0., 0., 0., 0., 1.58834383e-01, 7.94171914e-02, 0., 0., 0.,
          5.67265637e-02, 0., 3.20893899e-02, 0., 0., 5.67265637e-02, 0.,
          3.20893899e-02, 0., 1.13453127e-01, 0., 0., 0., 0., 0., 0., 0.,
          0., 0., 0., 0., 0., 1.37103423e-01, 0., 1.38495369e-02, 0.,
          7.83448145e-02, 0., 6.92476854e-02, 0., 0., 1.07724123e-01,
          4.89655100e-02, 0., 2.76990738e-02, 0., 9.79310200e-02, 0., 0.,
          0., 0., 4.89655100e-02, 0., 0., 0., 6.85517117e-02, 0.,
          2.76990738e-02, 0., 0., 0., 0., 0., 0., 0., 0., 0., 0.,
          1.06355824e-01, 0., 5.46944886e-02, 0., 1.06355824e-01, 0.,
          1.09388985e-01, 0., 0., 4.83435541e-02, 4.83435541e-02, 0., 0.,
          0., 6.76809773e-02, 0., 2.73472443e-02, 0., 0., 2.90061329e-02,
          0., 2.73472443e-02, 0., 1.06355824e-01, 0., 1.36736229e-01, 0.,
          0., 0., 0., 0., 0., 0., 0., 0., 0., 5.05501442e-02, 0., 0., 0.,
          8.08802322e-02, 0., 5.71909584e-02, 0., 0., 2.02200580e-02,
          3.03300861e-02, 0., 2.85954792e-02, 0., 1.11210316e-01, 0.,
          1.42977402e-01, 0., 0., 6.06601723e-02, 0., 2.85954792e-02, 0.,
          1.01100288e-01, 0., 2.14466110e-01, 0., 0., 0., 0., 0., 0., 0.,
          0., 0., 0., 2.94372533e-02, 0., 4.16305624e-02, 0.,
          4.41558808e-02, 0., 2.08152812e-02, 0., 0., 4.41558808e-02,
          8.83117616e-02, 0., 4.16305624e-02, 0., 1.47186264e-01, 0.,
          3.12229246e-01, 0., 0., 1.03030384e-01, 0., 0., 0.,
          4.41558808e-02, 0., 8.32611248e-02, 0., 0., 0., 0., 0., 0., 0.,
          0., 0., 0., 8.45420882e-02, 0., 0., 0., 0., 0., 0., 0., 0.,
          5.63613959e-02, 1.97264880e-01, 0., 0., 0., 8.45420882e-02, 0.,
          1.59414098e-01, 0., 0., 1.97264880e-01, 0., 0., 0.,
          5.63613959e-02, 0., 7.97070488e-02, 0., 0., 0., 0., 0., 0., 0.,
          0., 0., 0., 2.97875553e-02, 0., 0., 0., 4.46813330e-02, 0., 0.,
          0., 0., 1.63831547e-01, 1.04256444e-01, 0., 0., 0.,
          2.97875553e-02, 0., 4.21259627e-02, 0., 0., 2.82981783e-01, 0.,
          6.31889403e-02, 0., 7.44688883e-02, 0., 4.21259627e-02, 0., 0.,
          0., 0., 0., 0., 0., 0., 0., 0., 1.85454607e-01, 0.,
          7.15288371e-02, 0., 6.74380362e-02, 0., 0., 0., 0.,
          6.74380362e-02, 3.20330679e-01, 0., 7.15288371e-02, 0.,
          8.42975453e-02, 0., 4.76858914e-02, 0., 0., 8.42975453e-02, 0.,
          0., 0., 0., 0., 0., 0., 0., 0., 0., 0., 0., 0., 0., 0., 0.,
          5.35275191e-02, 0., 0., 0., 1.20436914e-01, 0., 0., 0., 0.,
          9.36731547e-02, 2.67637596e-02, 0., 1.89248342e-02, 0.,
          1.60582557e-01, 0., 7.56993368e-02, 0., 0., 9.36731547e-02, 0.,
          0., 0., 2.14110076e-01, 0., 3.78496684e-02, 0., 0., 0., 0., 0.,
          0., 0., 0., 0., 0., 8.91887024e-02, 0., 0., 0., 6.37062117e-02,
          0., 3.60376760e-02, 0., 0., 6.37062117e-02, 8.91887024e-02, 0.,
          0., 0., 2.03859881e-01, 0., 3.60376760e-02, 0., 0.,
          6.37062117e-02, 0., 0., 0., 1.91118643e-01, 0., 0., 0., 0., 0.,
          0., 0., 0., 0., 0., 0., 0., 6.60878643e-02, 0., 3.73849422e-02,
          0., 1.32175729e-01, 0., 0., 0., 0., 6.60878643e-02,
          6.60878643e-02, 0., 0., 0., 1.98263600e-01, 0., 0., 0., 0.,
          1.45393297e-01, 0., 0., 0., 1.58610880e-01, 0., 0., 0., 0., 0.,
          0., 0., 0., 0., 0., 0., 0., 5.82757443e-02, 0., 0., 0.,
          8.15860406e-02, 0., 3.29657383e-02, 0., 0., 3.49654481e-02,
          1.28206640e-01, 0., 0., 0., 1.39861792e-01, 0., 0., 0., 0.,
          8.15860406e-02, 0., 0., 0., 1.16551489e-01, 0., 0., 0., 0., 0.,
          0., 0., 0., 0., 0., 0., 0., 2.81884912e-02, 0., 2.65763644e-02,
          0., 1.03357807e-01, 0., 1.32881835e-01, 0., 0., 5.63769825e-02,
          6.57731518e-02, 0., 0., 0., 9.39616412e-02, 0., 0., 0., 0.,
          8.45654756e-02, 0., 0., 0., 7.51693100e-02, 0., 1.32881822e-02,
          0., 0., 0., 0., 0., 0., 0., 0., 0., 0., 7.02943727e-02, 0.,
          3.31370831e-02, 0., 1.17157288e-01, 0., 2.48528153e-01, 0., 0.,
          8.20101053e-02, 1.05441563e-01, 0., 0., 0., 9.37258303e-02, 0.,
          1.65685415e-02, 0., 0., 3.51471864e-02, 0., 3.31370831e-02, 0.,
          4.68629152e-02, 0., 1.65685415e-02, 0., 0., 0., 0., 0., 0., 0.,
          0., 0., 0., 1.21258482e-01, 0., 0., 0., 5.19679189e-02, 0.,
          9.79916453e-02, 0., 0., 1.21258482e-01, 5.19679189e-02, 0.,
          4.89958227e-02, 0., 6.92905560e-02, 0., 2.44979113e-02, 0., 0.,
          1.38581112e-01, 0., 0., 0., 1.90549031e-01, 0., 0., 0., 0., 0.,
          0., 0., 0., 0., 0., 0., 0., 8.73448178e-02, 0., 0., 0.,
          2.49556620e-02, 0., 3.52926366e-02, 0., 0., 2.37078786e-01,
          9.98226479e-02, 0., 0., 0., 1.37256145e-01, 0., 0., 0., 0.,
          1.49733976e-01, 0., 5.29389493e-02, 0., 2.49556620e-02, 0., 0.,
          0., 0., 0., 0., 0., 0., 0., 0., 0., 0., 3.25823903e-01, 0.,
          7.27554560e-02, 0., 8.57431367e-02, 0., 4.85036410e-02, 0., 0.,
          8.57431367e-02, 2.05783531e-01, 0., 7.27554560e-02, 0.,
          3.42972539e-02, 0., 0., 0., 0., 6.85945079e-02, 0., 0., 0., 0.,
          0., 0., 0., 0., 0., 0., 0., 0., 0., 0., 0., 0., 3.00497245e-02,
          0., 2.12483630e-02, 0., 1.80298343e-01, 0., 8.49934518e-02, 0.,
          0., 1.05174035e-01, 3.00497245e-02, 0., 2.12483630e-02, 0.,
          9.01491717e-02, 0., 4.24967259e-02, 0., 0., 1.50248623e-02, 0.,
          0., 0., 7.51243159e-02, 0., 2.12483630e-02, 0., 0., 0., 0., 0.,
          0., 0., 0., 0., 0., 1.03093565e-01, 0., 0., 0., 2.35642433e-01,
          0., 4.16560881e-02, 0., 0., 7.36382604e-02, 1.47276521e-02, 0.,
          0., 0., 7.36382604e-02, 0., 2.08280440e-02, 0., 0., 0., 0.,
          4.16560881e-02, 0., 1.32548869e-01, 0., 4.16560881e-02, 0., 0.,
          0., 0., 0., 0., 0., 0., 0., 0., 6.53113723e-02, 0., 0., 0.,
          1.95934102e-01, 0., 0., 0., 0., 1.43685013e-01, 0., 0.,
          3.69456895e-02, 0., 1.17560461e-01, 0., 3.69456895e-02, 0., 0.,
          0., 0., 0., 0., 1.17560461e-01, 0., 1.29309922e-01, 0., 0., 0.,
          0., 0., 0., 0., 0., 0., 0., 1.32851869e-01, 0., 0., 0.,
          1.44929305e-01, 0., 0., 0., 0., 8.45420957e-02, 0., 0., 0., 0.,
          1.08696982e-01, 0., 1.19560584e-01, 0., 0., 3.62323262e-02, 0.,
          0., 0., 1.32851869e-01, 0., 1.19560584e-01, 0., 0., 0., 0., 0.,
          0., 0., 0., 0., 0., 9.36731473e-02, 0., 0., 0., 1.33818775e-01,
          0., 0., 0., 0., 1.20436907e-01, 4.01456356e-02, 0., 0., 0.,
          1.47200659e-01, 0., 1.32473841e-01, 0., 0., 9.36731473e-02, 0.,
          0., 0., 9.36731473e-02, 0., 1.89248323e-02, 0., 0., 0., 0., 0.,
          0., 0., 0., 0., 0., 1.43476784e-01, 0., 0., 0., 1.27534926e-01,
          0., 2.25452017e-02, 0., 0., 4.78255935e-02, 1.11593053e-01, 0.,
          0., 0., 1.11593053e-01, 0., 2.25452017e-02, 0., 0.,
          9.56511870e-02, 0., 2.25452017e-02, 0., 9.56511870e-02, 0.,
          6.76356032e-02, 0., 0., 0., 0., 0., 0., 0., 0., 0., 0.,
          4.20676507e-02, 0., 3.96617614e-02, 0., 5.60902022e-02, 0.,
          1.98308807e-02, 0., 0., 1.12180404e-01, 8.41353014e-02, 0.,
          1.98308807e-02, 0., 8.41353014e-02, 0., 5.94926402e-02, 0., 0.,
          1.26202956e-01, 0., 1.98308807e-02, 0., 1.82293162e-01, 0., 0.,
          0., 0., 0., 0., 0., 0., 0., 0., 0., 0., 9.65024084e-02, 0., 0.,
          0., 1.32690802e-01, 0., 0., 0., 0., 1.44753605e-01,
          1.08565211e-01, 0., 1.70593765e-02, 0., 1.56816408e-01, 0., 0.,
          0., 0., 2.17130423e-01, 0., 5.11781275e-02, 0., 0., 0., 0., 0.,
          0., 0., 0., 0., 0., 0., 0., 0., 0., 2.69752145e-01, 0.,
          9.53717828e-02, 0., 4.49586920e-02, 0., 0., 0., 0.,
          8.99173841e-02, 4.04628247e-01, 0., 9.53717828e-02, 0., 0., 0.,
          0., 0., 0., 0., 0., 0., 0., 0., 0., 0., 0., 0., 0., 0., 0., 0.,
          0., 0., 0., 0., 1.01745673e-01, 0., 7.19450563e-02, 0.,
          3.05237025e-01, 0., 1.43890113e-01, 0., 0., 5.08728363e-02, 0.,
          0., 0., 0., 0., 0., 0., 0., 0., 0., 0., 0., 0., 0., 0., 0., 0.,
          0., 0., 0., 0., 0., 0., 0., 0., 0., 4.53081802e-02, 0., 0., 0.,
          2.26540908e-01, 0., 6.40754402e-02, 0., 0., 0., 0., 0., 0., 0.,
          0., 0., 0., 0., 0., 0., 0., 0., 0., 0., 0., 0., 0., 0., 0., 0.,
          0., 0., 0., 0., 0., 0., 0., 0., 8.42888802e-02, 0.,
          2.68205583e-01, 0., 8.42888802e-02, 0., 0., 0., 0., 0., 0., 0.,
          0., 0., 0., 0., 0., 0., 0., 0., 0., 0., 0., 0., 0., 0., 0., 0.,
          0., 0., 0., 0., 0., 0., 0., 0., 0., 0., 1.97249830e-01, 0.,
          2.16963753e-01, 0., 0., 6.57499433e-02, 0., 0., 0., 0., 0., 0.,
          0., 0., 0., 0., 0., 0., 0., 0., 0., 6.19896390e-02, 0., 0., 0.,
          0., 0., 0., 0., 0., 0., 0., 4.67193648e-02, 0., 0., 0.,
          1.71304345e-01, 0., 1.54166043e-01, 0., 0., 1.09011851e-01, 0.,
          0., 0., 0., 0., 0., 4.40474376e-02, 0., 0., 2.02450588e-01, 0.,
          0., 0., 3.11462432e-02, 0., 1.10118605e-01, 0., 0., 0., 0., 0.,
          0., 0., 0., 0., 0., 1.12644993e-01, 0., 0., 0., 1.12644993e-01,
          0., 2.27577239e-02, 0., 0., 9.65528488e-02, 2.09197834e-01, 0.,
          0., 0., 3.21842842e-02, 0., 1.13788627e-01, 0., 0.,
          1.60921421e-02, 0., 0., 0., 9.65528488e-02, 0., 0., 0., 0., 0.,
          0., 0., 0., 0., 0., 0., 0., 9.94798690e-02, 0., 2.34476291e-02,
          0., 9.94798690e-02, 0., 7.03428835e-02, 0., 0., 1.49219811e-01,
          1.65799782e-02, 0., 0., 0., 9.94798690e-02, 0., 0., 0., 0.,
          8.28998908e-02, 0., 7.03428835e-02, 0., 4.97399345e-02, 0., 0.,
          0., 0., 0., 0., 0., 0., 0., 0., 0., 0., 1.25774994e-01, 0.,
          1.97636336e-02, 0., 1.81675002e-01, 0., 0., 0., 0.,
          2.51549989e-01, 6.98750019e-02, 0., 5.92909008e-02, 0.,
          4.19250019e-02, 0., 0., 0., 0., 1.11800000e-01, 0.,
          7.90545344e-02, 0., 0., 0., 0., 0., 0., 0., 0., 0., 0., 0., 0.,
          0., 0., 5.01399815e-01, 0., 1.18181065e-01, 0., 0., 0., 0., 0.,
          0., 0., 2.22844362e-01, 0., 1.57574758e-01, 0., 0., 0., 0., 0.,
          0., 0., 0., 0., 0., 0., 0., 0., 0., 0., 0., 0., 0., 0., 0., 0.,
          0., 0. ]
      - [ 0., 0., 0., 0., 0., 0., 0., 0., 0., 0., 0., 0., 0., 0., 0., 0.,
          0., 0., 0., 1.52012005e-01, 0., 4.29954916e-01, 0.,
          4.18033034e-01, 0., 0., 0., 0., 0., 0., 0., 0., 0., 0., 0., 0.,
          0., 0., 0., 0., 0., 0., 0., 0., 0., 0., 7.41144717e-02, 0.,
          2.09627405e-01, 0., 2.03814805e-01, 0., 0., 0., 0.,
          3.70572358e-02, 0., 2.62034219e-02, 0., 3.70572358e-01, 0.,
          7.86102638e-02, 0., 0., 0., 0., 0., 0., 0., 0., 0., 0., 0., 0.,
          0., 0., 0., 0., 0., 0., 0., 0., 4.34111953e-02, 0.,
          3.06963492e-02, 0., 4.34111923e-01, 0., 9.20890421e-02, 0., 0.,
          2.17055976e-02, 0., 0., 0., 3.47289562e-01, 0., 3.06963492e-02,
          0., 0., 0., 0., 0., 0., 0., 0., 0., 0., 0., 0., 0., 0., 0., 0.,
          0., 0., 0., 0., 2.41049360e-02, 0., 0., 0., 3.85678977e-01, 0.,
          3.40895280e-02, 0., 0., 4.82098721e-02, 0., 1.36358112e-01, 0.,
          3.37469101e-01, 0., 3.40895280e-02, 0., 0., 0., 0., 0., 0., 0.,
          0., 0., 0., 0., 0., 0., 0., 0., 0., 0., 0., 0., 0.,
          3.65444161e-02, 0., 1.03363216e-01, 0., 2.55810916e-01, 0.,
          2.58408040e-02, 0., 0., 9.13610458e-02, 0., 1.03363216e-01, 0.,
          3.28899741e-01, 0., 0., 0., 0., 0., 0., 0., 0., 0., 0., 0., 0.,
          0., 0., 0., 0., 4.04240713e-02, 0., 0., 0., 0., 0.,
          6.73734546e-02, 0., 7.62243643e-02, 0., 2.42544442e-01, 0., 0.,
          0., 0., 1.61696285e-01, 0., 1.90560911e-02, 0., 1.75170988e-01,
          0., 0., 0., 0., 0., 0., 0., 0., 0., 0., 0., 0., 0., 0.,
          1.63576409e-01, 0., 2.31331959e-02, 0., 0., 0., 0.,
          8.09661895e-02, 1.38799176e-01, 0., 1.63576398e-02, 0.,
          1.50365770e-01, 0., 0., 0., 0., 9.25327837e-02, 0.,
          4.90729176e-02, 0., 9.25327837e-02, 0., 0., 0., 0., 0., 0., 0.,
          0., 0., 0., 0., 0., 8.64511654e-02, 0., 6.98630959e-02, 0.,
          1.35851830e-01, 0., 0., 0., 0., 3.70505005e-02, 9.88013372e-02,
          0., 5.23973182e-02, 0., 9.88013372e-02, 0., 0., 0., 0.,
          1.60552174e-01, 0., 0., 0., 7.41010010e-02, 0., 6.98630959e-02,
          0., 0., 0., 0., 0., 0., 0., 0., 0., 0., 3.56965922e-02, 0., 0.,
          0., 9.51909125e-02, 0., 1.68275349e-02, 0., 0., 1.18988641e-01,
          1.54685229e-01, 0., 0., 0., 7.13931844e-02, 0., 6.73101395e-02,
          0., 0., 1.66584089e-01, 0., 8.41376781e-02, 0., 2.37977281e-02,
          0., 0., 0., 0., 0., 0., 0., 0., 0., 0., 0., 0., 0., 0., 0., 0.,
          0., 0., 0., 0., 0., 6.75524995e-02, 0., 0., 9.55336615e-02, 0.,
          0., 0., 0., 0., 0., 2.36433744e-01, 0., 7.16502368e-02, 0.,
          1.51993126e-01, 0., 0., 0., 0., 0., 0., 0., 0., 0., 0., 0., 0.,
          4.07989956e-02, 0., 1.15396991e-01, 0., 1.12197235e-01, 0., 0.,
          0., 0., 2.03994978e-02, 1.42796487e-01, 0., 4.32738662e-02, 0.,
          9.17977393e-02, 0., 0., 0., 0., 4.07989956e-02, 0., 0., 0.,
          1.01997487e-01, 0., 2.88492460e-02, 0., 0., 0., 0., 0., 0., 0.,
          0., 0., 0., 2.78166067e-02, 0., 1.96693111e-02, 0.,
          2.78166085e-01, 0., 5.90079315e-02, 0., 0., 1.39083033e-02,
          5.56332134e-02, 0., 0., 0., 1.39083043e-01, 0., 3.93386222e-02,
          0., 0., 5.56332134e-02, 0., 0., 0., 6.95415214e-02, 0., 0., 0.,
          0., 0., 0., 0., 0., 0., 0., 0., 0., 1.39888944e-02, 0., 0., 0.,
          2.23822311e-01, 0., 1.97832827e-02, 0., 0., 2.79777888e-02,
          5.59555776e-02, 0., 0., 0., 6.99444711e-02, 0., 0., 0., 0.,
          1.11911155e-01, 0., 0., 0., 1.81855619e-01, 0., 0., 0., 0., 0.,
          0., 0., 0., 0., 0., 0., 0., 2.13383585e-02, 0., 6.03539869e-02,
          0., 1.49368510e-01, 0., 1.50884967e-02, 0., 0., 5.33458926e-02,
          8.53534341e-02, 0., 0., 0., 1.38699323e-01, 0., 0., 0., 0.,
          1.17360964e-01, 0., 0., 0., 1.06691785e-01, 0., 0., 0., 0., 0.,
          0., 0., 0., 0., 0., 0., 0., 5.06442375e-02, 0., 5.72974123e-02,
          0., 1.82319254e-01, 0., 0., 0., 0., 1.21546164e-01,
          1.11417316e-01, 0., 0., 0., 1.01288475e-01, 0., 0., 0., 0.,
          5.06442375e-02, 0., 5.72974123e-02, 0., 1.21546164e-01, 0., 0.,
          0., 0., 0., 0., 0., 0., 0., 0., 0., 0., 1.57600001e-01, 0.,
          1.85733382e-02, 0., 1.70733333e-01, 0., 0., 0., 0.,
          1.05066665e-01, 6.56666681e-02, 0., 7.42933527e-02, 0.,
          1.57600001e-01, 0., 0., 0., 0., 3.94000001e-02, 0., 0., 0.,
          1.31333331e-02, 0., 3.71466763e-02, 0., 0., 0., 0., 0., 0., 0.,
          0., 0., 0., 1.13109492e-01, 0., 5.99853620e-02, 0.,
          1.13109492e-01, 0., 0., 0., 0., 1.83802933e-01, 4.24160622e-02,
          0., 0., 0., 1.41386865e-02, 0., 3.99902463e-02, 0., 0.,
          9.89708081e-02, 0., 0., 0., 1.69664249e-01, 0., 0., 0., 0., 0.,
          0., 0., 0., 0., 0., 0., 0., 1.46799192e-01, 0., 0., 0.,
          6.77534714e-02, 0., 6.38785809e-02, 0., 0., 1.58091426e-01,
          7.90457129e-02, 0., 0., 0., 1.35506943e-01, 0., 0., 0., 0.,
          2.14552656e-01, 0., 3.19392905e-02, 0., 0., 0., 0., 0., 0., 0.,
          0., 0., 0., 0., 0., 0., 0., 0., 0., 7.70848468e-02, 0., 0., 0.,
          0., 0., 0., 1.90775275e-01, 0., 0., 1.15627281e-01, 0., 0., 0.,
          0., 0., 0., 2.18028888e-01, 0., 0., 0., 2.18028888e-01, 0., 0.,
          0., 0., 0., 0., 0., 0., 0., 0., 0., 0., 1.64568290e-01, 0.,
          4.98717204e-02, 0., 1.05793908e-01, 0., 0., 0., 0.,
          4.70195152e-02, 1.88078061e-01, 0., 0., 0., 1.88078061e-01, 0.,
          0., 0., 0., 8.22841451e-02, 0., 0., 0., 2.35097576e-02, 0., 0.,
          0., 0., 0., 0., 0., 0., 0., 0., 0., 0., 7.59635195e-02, 0., 0.,
          0., 1.89908803e-01, 0., 5.37143163e-02, 0., 0., 7.59635195e-02,
          1.32936165e-01, 0., 0., 0., 3.79817598e-02, 0., 0., 0., 0.,
          5.69726378e-02, 0., 5.37143163e-02, 0., 2.27890551e-01, 0., 0.,
          0., 0., 0., 0., 0., 0., 0., 0., 0., 0., 5.39504252e-02, 0., 0.,
          0., 6.74380288e-02, 0., 0., 0., 0., 1.07900850e-01,
          4.04628180e-02, 0., 3.81487086e-02, 0., 1.61851272e-01, 0., 0.,
          0., 0., 2.69752126e-02, 0., 1.52594849e-01, 0., 1.75338879e-01,
          0., 0., 0., 0., 0., 0., 0., 0., 0., 0., 0., 0., 6.87549040e-02,
          0., 0., 0., 1.11726716e-01, 0., 0., 0., 0., 9.45379883e-02,
          1.71887260e-02, 0., 9.72341225e-02, 0., 1.11726716e-01, 0., 0.,
          0., 0., 3.43774520e-02, 0., 1.70159712e-01, 0., 1.71887264e-01,
          0., 3.64627913e-02, 0., 0., 0., 0., 0., 0., 0., 0., 0., 0.,
          9.42026377e-02, 0., 0., 0., 8.56387615e-02, 0., 0., 0., 0.,
          4.28193808e-02, 3.42555046e-02, 0., 1.69556111e-01, 0.,
          1.71277523e-01, 0., 3.63334455e-02, 0., 0., 3.42555046e-02, 0.,
          6.05557486e-02, 0., 1.19894266e-01, 0., 0., 0., 0., 0., 0., 0.,
          0., 0., 0., 0., 0., 7.20619187e-02, 0., 8.15287530e-02, 0.,
          1.72948614e-01, 0., 0., 0., 0., 4.32371534e-02, 5.76495379e-02,
          0., 1.01910949e-01, 0., 2.01773375e-01, 0., 0., 0., 0.,
          5.76495379e-02, 0., 4.07643765e-02, 0., 1.15299076e-01, 0., 0.,
          0., 0., 0., 0., 0., 0., 0., 0., 0., 0., 5.04326411e-02, 0., 0.,
          0., 1.68108810e-02, 0., 4.75483499e-02, 0., 0., 1.17676169e-01,
          6.72435239e-02, 0., 4.75483499e-02, 0., 1.34487048e-01, 0., 0.,
          0., 0., 1.17676169e-01, 0., 4.75483499e-02, 0., 1.51297927e-01,
          0., 0., 0., 0., 0., 0., 0., 0., 0., 0., 0., 0., 8.82571265e-02,
          0., 0., 0., 1.51297927e-01, 0., 0., 0., 0., 2.39555046e-01,
          8.82571265e-02, 0., 3.56612615e-02, 0., 1.13473445e-01, 0., 0.,
          0., 0., 1.76514253e-01, 0., 7.13225231e-02, 0., 0., 0., 0., 0.,
          0., 0., 0., 0., 0., 0., 0., 0., 0., 0., 0., 1.04573056e-01, 0.,
          0., 0., 0., 0., 0., 1.97184831e-01, 6.16202615e-02, 0.,
          6.97153658e-02, 0., 6.16202615e-02, 0., 0., 0., 0.,
          1.84860781e-01, 0., 0., 0., 1.23240523e-01, 0., 0., 0., 0., 0.,
          0., 0., 0., 0., 0., 0., 0., 1.65828392e-01, 0., 0., 0.,
          1.65828392e-01, 0., 0., 0., 0., 7.25499243e-02, 1.55464113e-01,
          0., 0., 0., 1.03642747e-01, 0., 0., 0., 0., 1.45099849e-01, 0.,
          1.46572972e-02, 0., 8.29141960e-02, 0., 7.32864887e-02, 0., 0.,
          0., 0., 0., 0., 0., 0., 0., 0., 7.13465214e-02, 0., 0., 0.,
          2.03847215e-02, 0., 0., 0., 0., 3.05770822e-02, 1.42693043e-01,
          0., 1.44141745e-02, 0., 8.15388858e-02, 0., 7.20708743e-02, 0.,
          0., 1.01923607e-01, 0., 5.76566979e-02, 0., 1.12115964e-01, 0.,
          1.44141763e-01, 0., 0., 0., 0., 0., 0., 0., 0., 0., 0.,
          2.98216734e-02, 0., 2.81161424e-02, 0., 1.19286694e-01, 0., 0.,
          0., 0., 1.98811162e-02, 9.94055793e-02, 0., 5.62322848e-02, 0.,
          1.09346136e-01, 0., 1.40580729e-01, 0., 0., 1.98811162e-02, 0.,
          0., 0., 7.95244649e-02, 0., 5.62322848e-02, 0., 0., 0., 0., 0.,
          0., 0., 0., 0., 0., 2.01501530e-02, 0., 1.13986485e-01, 0.,
          1.30975991e-01, 0., 0., 0., 0., 4.03003059e-02, 2.01501530e-02,
          0., 0., 0., 8.06006119e-02, 0., 5.69932349e-02, 0., 0.,
          2.01501530e-02, 0., 2.84966175e-02, 0., 3.02252285e-02, 0.,
          1.42483087e-02, 0., 0., 0., 0., 0., 0., 0., 0., 0., 0.,
          4.68629152e-02, 0., 2.31959611e-01, 0., 2.34314576e-01, 0.,
          4.97056246e-02, 0., 0., 4.68629152e-02, 2.34314576e-02, 0.,
          3.31370831e-02, 0., 3.51471864e-02, 0., 1.65685415e-02, 0., 0.,
          3.51471864e-02, 0., 0., 0., 0., 0., 0., 0., 0., 0., 0., 0., 0.,
          0., 0., 0., 0., 8.35081860e-02, 0., 1.47623017e-01, 0.,
          2.92278647e-01, 0., 0., 0., 0., 8.35081860e-02, 6.26311377e-02,
          0., 0., 0., 0., 0., 0., 0., 0., 4.17540930e-02, 0., 0., 0.,
          6.26311377e-02, 0., 0., 0., 0., 0., 0., 0., 0., 0., 0., 0., 0.,
          6.90852329e-02, 0., 4.88506332e-02, 0., 1.38170466e-01, 0., 0.,
          0., 0., 1.20899156e-01, 3.45426165e-02, 0., 0., 0.,
          5.18139228e-02, 0., 0., 0., 0., 1.89984381e-01, 0.,
          7.32759461e-02, 0., 6.90852329e-02, 0., 0., 0., 0., 0., 0., 0.,
          0., 0., 0., 0., 0., 1.13400869e-01, 0., 4.58208695e-02, 0.,
          1.45801112e-01, 0., 0., 0., 0., 2.26801738e-01, 1.78201362e-01,
          0., 6.87313005e-02, 0., 6.48004934e-02, 0., 0., 0., 0.,
          6.48004934e-02, 0., 0., 0., 0., 0., 0., 0., 0., 0., 0., 0., 0.,
          0., 0., 0., 0., 7.19576851e-02, 0., 8.14108253e-02, 0.,
          7.19576851e-02, 0., 0., 0., 0., 2.15873063e-01, 5.75661510e-02,
          0., 0., 0., 1.29523844e-01, 0., 0., 0., 0., 1.15132302e-01, 0.,
          0., 0., 7.19576851e-02, 0., 4.07054126e-02, 0., 0., 0., 0., 0.,
          0., 0., 0., 0., 0., 1.68270618e-01, 0., 0., 0., 1.12180404e-01,
          0., 0., 0., 0., 1.57052577e-01, 8.97443220e-02, 0., 0., 0.,
          5.60902022e-02, 0., 3.17294113e-02, 0., 0., 5.60902022e-02, 0.,
          3.17294113e-02, 0., 1.12180404e-01, 0., 0., 0., 0., 0., 0., 0.,
          0., 0., 0., 0., 0., 1.37334168e-01, 0., 1.38728460e-02, 0.,
          7.84766749e-02, 0., 6.93642348e-02, 0., 0., 9.80958417e-02,
          4.90479209e-02, 0., 2.77456921e-02, 0., 9.80958417e-02, 0., 0.,
          0., 0., 3.92383374e-02, 0., 0., 0., 5.88575043e-02, 0.,
          2.77456921e-02, 0., 0., 0., 0., 0., 0., 0., 0., 0., 0.,
          1.01776160e-01, 0., 5.75732924e-02, 0., 1.11953780e-01, 0.,
          1.43933237e-01, 0., 0., 2.03552321e-02, 4.07104641e-02, 0., 0.,
          0., 6.10656999e-02, 0., 2.87866462e-02, 0., 0., 1.01776160e-02,
          0., 2.87866462e-02, 0., 1.11953780e-01, 0., 1.43933237e-01, 0.,
          0., 0., 0., 0., 0., 0., 0., 0., 0., 2.12966017e-02, 0., 0., 0.,
          8.51864070e-02, 0., 6.02358840e-02, 0., 0., 2.12966017e-02,
          1.06483009e-02, 0., 3.01179420e-02, 0., 1.17131308e-01, 0.,
          1.50589734e-01, 0., 0., 6.38898090e-02, 0., 3.01179420e-02, 0.,
          1.06483012e-01, 0., 2.25884587e-01, 0., 0., 0., 0., 0., 0., 0.,
          0., 0., 0., 2.94372533e-02, 0., 4.16305624e-02, 0.,
          4.41558808e-02, 0., 2.08152812e-02, 0., 0., 4.41558808e-02,
          8.83117616e-02, 0., 4.16305624e-02, 0., 1.47186264e-01, 0.,
          3.12229246e-01, 0., 0., 1.03030384e-01, 0., 0., 0.,
          4.41558808e-02, 0., 8.32611248e-02, 0., 0., 0., 0., 0., 0., 0.,
          0., 0., 0., 8.45420882e-02, 0., 0., 0., 0., 0., 0., 0., 0.,
          5.63613959e-02, 1.97264880e-01, 0., 0., 0., 8.45420882e-02, 0.,
          1.59414098e-01, 0., 0., 1.97264880e-01, 0., 0., 0.,
          5.63613959e-02, 0., 7.97070488e-02, 0., 0., 0., 0., 0., 0., 0.,
          0., 0., 0., 2.97875553e-02, 0., 0., 0., 4.46813330e-02, 0., 0.,
          0., 0., 1.63831547e-01, 1.04256444e-01, 0., 0., 0.,
          2.97875553e-02, 0., 4.21259627e-02, 0., 0., 2.82981783e-01, 0.,
          6.31889403e-02, 0., 7.44688883e-02, 0., 4.21259627e-02, 0., 0.,
          0., 0., 0., 0., 0., 0., 0., 0., 1.85454607e-01, 0.,
          7.15288371e-02, 0., 6.74380362e-02, 0., 0., 0., 0.,
          6.74380362e-02, 3.20330679e-01, 0., 7.15288371e-02, 0.,
          8.42975453e-02, 0., 4.76858914e-02, 0., 0., 8.42975453e-02, 0.,
          0., 0., 0., 0., 0., 0., 0., 0., 0., 0., 0., 0., 0., 0., 0.,
          5.28206788e-02, 0., 0., 0., 1.18846528e-01, 0., 0., 0., 0.,
          1.05641358e-01, 2.64103394e-02, 0., 1.86749287e-02, 0.,
          1.58462033e-01, 0., 7.46997148e-02, 0., 0., 9.24361870e-02, 0.,
          0., 0., 2.11282715e-01, 0., 3.73498574e-02, 0., 0., 0., 0., 0.,
          0., 0., 0., 0., 0., 1.04595289e-01, 0., 0., 0., 6.53720573e-02,
          0., 3.69800180e-02, 0., 0., 6.53720573e-02, 9.15208831e-02, 0.,
          0., 0., 2.09190577e-01, 0., 3.69800180e-02, 0., 0.,
          5.22976443e-02, 0., 0., 0., 1.69967353e-01, 0., 0., 0., 0., 0.,
          0., 0., 0., 0., 0., 0., 0., 7.17804432e-02, 0., 4.06051502e-02,
          0., 1.43560886e-01, 0., 0., 0., 0., 5.74243553e-02,
          5.74243553e-02, 0., 0., 0., 1.86629161e-01, 0., 0., 0., 0.,
          1.43560886e-01, 0., 0., 0., 1.72273070e-01, 0., 0., 0., 0., 0.,
          0., 0., 0., 0., 0., 0., 0., 5.14145494e-02, 0., 0., 0.,
          7.71218240e-02, 0., 3.63555774e-02, 0., 0., 1.28536373e-02,
          1.28536373e-01, 0., 0., 0., 1.54243648e-01, 0., 0., 0., 0.,
          5.14145494e-02, 0., 0., 0., 1.28536373e-01, 0., 0., 0., 0., 0.,
          0., 0., 0., 0., 0., 0., 0., 9.85936541e-03, 0., 2.78864950e-02,
          0., 1.08453013e-01, 0., 1.39432490e-01, 0., 0., 5.91561906e-02,
          3.94374616e-02, 0., 0., 0., 9.85936522e-02, 0., 0., 0., 0.,
          8.87342840e-02, 0., 0., 0., 7.88749233e-02, 0., 1.39432475e-02,
          0., 0., 0., 0., 0., 0., 0., 0., 0., 0., 7.02943727e-02, 0.,
          3.31370831e-02, 0., 1.17157288e-01, 0., 2.48528153e-01, 0., 0.,
          8.20101053e-02, 1.05441563e-01, 0., 0., 0., 9.37258303e-02, 0.,
          1.65685415e-02, 0., 0., 3.51471864e-02, 0., 3.31370831e-02, 0.,
          4.68629152e-02, 0., 1.65685415e-02, 0., 0., 0., 0., 0., 0., 0.,
          0., 0., 0., 1.21258482e-01, 0., 0., 0., 5.19679189e-02, 0.,
          9.79916453e-02, 0., 0., 1.21258482e-01, 5.19679189e-02, 0.,
          4.89958227e-02, 0., 6.92905560e-02, 0., 2.44979113e-02, 0., 0.,
          1.38581112e-01, 0., 0., 0., 1.90549031e-01, 0., 0., 0., 0., 0.,
          0., 0., 0., 0., 0., 0., 0., 9.44132507e-02, 0., 0., 0.,
          2.69752145e-02, 0., 3.81487124e-02, 0., 0., 2.56264538e-01,
          1.07900858e-01, 0., 0., 0., 1.48363680e-01, 0., 0., 0., 0.,
          8.09256434e-02, 0., 5.72230667e-02, 0., 2.69752145e-02, 0., 0.,
          0., 0., 0., 0., 0., 0., 0., 0., 0., 0., 3.63193542e-01, 0.,
          8.10999796e-02, 0., 9.55772474e-02, 0., 5.40666543e-02, 0., 0.,
          9.55772474e-02, 1.14692695e-01, 0., 8.10999796e-02, 0.,
          3.82308997e-02, 0., 0., 0., 0., 7.64617994e-02, 0., 0., 0., 0.,
          0., 0., 0., 0., 0., 0., 0., 0., 0., 0., 0., 0., 3.00497245e-02,
          0., 2.12483630e-02, 0., 1.80298343e-01, 0., 8.49934518e-02, 0.,
          0., 1.05174035e-01, 3.00497245e-02, 0., 2.12483630e-02, 0.,
          9.01491717e-02, 0., 4.24967259e-02, 0., 0., 1.50248623e-02, 0.,
          0., 0., 7.51243159e-02, 0., 2.12483630e-02, 0., 0., 0., 0., 0.,
          0., 0., 0., 0., 0., 1.08551905e-01, 0., 0., 0., 2.48118639e-01,
          0., 4.38615941e-02, 0., 0., 6.20296597e-02, 1.55074149e-02, 0.,
          0., 0., 7.75370747e-02, 0., 2.19307970e-02, 0., 0., 0., 0.,
          4.38615941e-02, 0., 1.55074149e-01, 0., 2.19307970e-02, 0., 0.,
          0., 0., 0., 0., 0., 0., 0., 0., 5.59000000e-02, 0., 0., 0.,
          1.81675002e-01, 0., 0., 0., 0., 1.39750004e-01, 0., 0.,
          3.95272672e-02, 0., 1.39750004e-01, 0., 1.97636336e-02, 0., 0.,
          0., 0., 0., 0., 9.78249982e-02, 0., 1.58109084e-01, 0., 0., 0.,
          0., 0., 0., 0., 0., 0., 0., 1.27855644e-01, 0., 0., 0.,
          1.53426781e-01, 0., 0., 0., 0., 5.11422604e-02, 0., 0., 0., 0.,
          8.94989520e-02, 0., 1.44652158e-01, 0., 0., 3.83566953e-02, 0.,
          0., 0., 1.40641212e-01, 0., 1.26570642e-01, 0., 0., 0., 0., 0.,
          0., 0., 0., 0., 0., 5.57662845e-02, 0., 0., 0., 1.39415711e-01,
          0., 0., 0., 0., 1.25474140e-01, 4.18247133e-02, 0., 0., 0.,
          1.53357282e-01, 0., 1.38014525e-01, 0., 0., 9.75909978e-02, 0.,
          0., 0., 9.75909978e-02, 0., 1.97163597e-02, 0., 0., 0., 0., 0.,
          0., 0., 0., 0., 0., 1.43476784e-01, 0., 0., 0., 1.27534926e-01,
          0., 2.25452017e-02, 0., 0., 4.78255935e-02, 1.11593053e-01, 0.,
          0., 0., 1.11593053e-01, 0., 2.25452017e-02, 0., 0.,
          9.56511870e-02, 0., 2.25452017e-02, 0., 9.56511870e-02, 0.,
          6.76356032e-02, 0., 0., 0., 0., 0., 0., 0., 0., 0., 0.,
          4.20676507e-02, 0., 3.96617614e-02, 0., 5.60902022e-02, 0.,
          1.98308807e-02, 0., 0., 1.12180404e-01, 8.41353014e-02, 0.,
          1.98308807e-02, 0., 8.41353014e-02, 0., 5.94926402e-02, 0., 0.,
          1.26202956e-01, 0., 1.98308807e-02, 0., 1.82293162e-01, 0., 0.,
          0., 0., 0., 0., 0., 0., 0., 0., 0., 0., 1.07651748e-01, 0., 0.,
          0., 1.48021147e-01, 0., 0., 0., 0., 8.07388127e-02,
          1.21108219e-01, 0., 1.90303195e-02, 0., 1.74934089e-01, 0., 0.,
          0., 0., 1.88390553e-01, 0., 7.61212781e-02, 0., 0., 0., 0., 0.,
          0., 0., 0., 0., 0., 0., 0., 0., 0., 1.67133272e-01, 0.,
          1.18181065e-01, 0., 5.57110906e-02, 0., 0., 0., 0.,
          1.11422181e-01, 3.89977634e-01, 0., 1.57574758e-01, 0., 0., 0.,
          0., 0., 0., 0., 0., 0., 0., 0., 0., 0., 0., 0., 0., 0., 0., 0.,
          0., 0., 0., 0., 1.01745673e-01, 0., 7.19450563e-02, 0.,
          3.05237025e-01, 0., 1.43890113e-01, 0., 0., 5.08728363e-02, 0.,
          0., 0., 0., 0., 0., 0., 0., 0., 0., 0., 0., 0., 0., 0., 0., 0.,
          0., 0., 0., 0., 0., 0., 0., 0., 0., 4.61747572e-02, 0., 0., 0.,
          2.30873778e-01, 0., 6.53009638e-02, 0., 0., 0., 0., 0., 0., 0.,
          0., 0., 0., 0., 0., 0., 0., 0., 0., 0., 0., 0., 0., 0., 0., 0.,
          0., 0., 0., 0., 0., 0., 0., 0., 8.68778899e-02, 0.,
          3.07159752e-01, 0., 4.34389450e-02, 0., 0., 0., 0., 0., 0., 0.,
          0., 0., 0., 0., 0., 0., 0., 0., 0., 0., 0., 0., 0., 0., 0., 0.,
          0., 0., 0., 0., 0., 0., 0., 0., 0., 0., 1.55411780e-01, 0.,
          2.51183361e-01, 0., 0., 6.66050464e-02, 0., 0., 0., 0., 0., 0.,
          0., 0., 0., 0., 0., 0., 0., 0., 0., 6.27958402e-02, 0., 0., 0.,
          0., 0., 0., 0., 0., 0., 0., 4.67193648e-02, 0., 0., 0.,
          1.71304345e-01, 0., 1.54166043e-01, 0., 0., 1.09011851e-01, 0.,
          0., 0., 0., 0., 0., 4.40474376e-02, 0., 0., 2.02450588e-01, 0.,
          0., 0., 3.11462432e-02, 0., 1.10118605e-01, 0., 0., 0., 0., 0.,
          0., 0., 0., 0., 0., 1.12644993e-01, 0., 0., 0., 1.12644993e-01,
          0., 2.27577239e-02, 0., 0., 9.65528488e-02, 2.09197834e-01, 0.,
          0., 0., 3.21842842e-02, 0., 1.13788627e-01, 0., 0.,
          1.60921421e-02, 0., 0., 0., 9.65528488e-02, 0., 0., 0., 0., 0.,
          0., 0., 0., 0., 0., 0., 0., 9.94798690e-02, 0., 2.34476291e-02,
          0., 9.94798690e-02, 0., 7.03428835e-02, 0., 0., 1.49219811e-01,
          1.65799782e-02, 0., 0., 0., 9.94798690e-02, 0., 0., 0., 0.,
          8.28998908e-02, 0., 7.03428835e-02, 0., 4.97399345e-02, 0., 0.,
          0., 0., 0., 0., 0., 0., 0., 0., 0., 0., 1.39413089e-01, 0.,
          2.19066534e-02, 0., 2.01374456e-01, 0., 0., 0., 0.,
          2.16864809e-01, 7.74517134e-02, 0., 6.57199547e-02, 0.,
          4.64710295e-02, 0., 0., 0., 0., 7.74517134e-02, 0.,
          6.57199547e-02, 0., 0., 0., 0., 0., 0., 0., 0., 0., 0., 0., 0.,
          0., 0., 4.84437525e-01, 0., 1.95742324e-01, 0., 0., 0., 0., 0.,
          0., 0., 1.73013404e-01, 0., 1.46806732e-01, 0., 0., 0., 0., 0.,
          0., 0., 0., 0., 0., 0., 0., 0., 0., 0., 0., 0., 0., 0., 0., 0.,
          0., 0. ]
      - [ 0., 0., 0., 0., 0., 0., 0., 0., 0., 0., 0., 0., 0., 0., 0., 0.,
          0., 0., 0., 1.52012005e-01, 0., 4.29954916e-01, 0.,
          4.18033034e-01, 0., 0., 0., 0., 0., 0., 0., 0., 0., 0., 0., 0.,
          0., 0., 0., 0., 0., 0., 0., 0., 0., 0., 7.52698332e-02, 0.,
          2.12895259e-01, 0., 2.06992045e-01, 0., 0., 0., 0.,
          3.76349166e-02, 0., 0., 0., 4.13984090e-01, 0., 5.32238111e-02,
          0., 0., 0., 0., 0., 0., 0., 0., 0., 0., 0., 0., 0., 0., 0., 0.,
          0., 0., 0., 0., 4.42060865e-02, 0., 0., 0., 4.86266941e-01, 0.,
          6.25168458e-02, 0., 0., 2.21030433e-02, 0., 0., 0.,
          3.53648692e-01, 0., 3.12584229e-02, 0., 0., 0., 0., 0., 0., 0.,
          0., 0., 0., 0., 0., 0., 0., 0., 0., 0., 0., 0., 0.,
          2.35375650e-02, 0., 0., 0., 3.76601040e-01, 0., 3.32871415e-02,
          0., 0., 7.06126913e-02, 0., 1.33148566e-01, 0., 3.29525918e-01,
          0., 3.32871415e-02, 0., 0., 0., 0., 0., 0., 0., 0., 0., 0., 0.,
          0., 0., 0., 0., 0., 0., 0., 0., 0., 5.38329780e-02, 0.,
          1.01508431e-01, 0., 2.51220554e-01, 0., 2.53771078e-02, 0., 0.,
          8.97216275e-02, 0., 1.01508431e-01, 0., 3.22997868e-01, 0., 0.,
          0., 0., 0., 0., 0., 0., 0., 0., 0., 0., 0., 0., 0., 0.,
          4.04240713e-02, 0., 0., 0., 0., 0., 6.73734546e-02, 0.,
          7.62243643e-02, 0., 2.42544442e-01, 0., 0., 0., 0.,
          1.61696285e-01, 0., 1.90560911e-02, 0., 1.75170988e-01, 0., 0.,
          0., 0., 0., 0., 0., 0., 0., 0., 0., 0., 0., 0., 1.63576409e-01,
          0., 2.31331959e-02, 0., 0., 0., 0., 8.09661895e-02,
          1.38799176e-01, 0., 1.63576398e-02, 0., 1.50365770e-01, 0., 0.,
          0., 0., 9.25327837e-02, 0., 4.90729176e-02, 0., 9.25327837e-02,
          0., 0., 0., 0., 0., 0., 0., 0., 0., 0., 0., 0., 8.43672678e-02,
          0., 6.81790486e-02, 0., 1.32577136e-01, 0., 0., 0., 0.,
          3.61573994e-02, 9.64197367e-02, 0., 5.11342846e-02, 0.,
          9.64197367e-02, 0., 0., 0., 0., 1.44629598e-01, 0., 0., 0.,
          7.23147988e-02, 0., 6.81790486e-02, 0., 0., 0., 0., 0., 0., 0.,
          0., 0., 0., 3.40747871e-02, 0., 0., 0., 1.24940887e-01, 0.,
          1.60630085e-02, 0., 0., 1.13582626e-01, 1.36299148e-01, 0., 0.,
          0., 6.81495741e-02, 0., 6.42520338e-02, 0., 0., 1.59015670e-01,
          0., 8.03150460e-02, 0., 3.40747871e-02, 0., 0., 0., 0., 0., 0.,
          0., 0., 0., 0., 0., 0., 0., 0., 0., 0., 0., 0., 0., 0., 0.,
          6.75524995e-02, 0., 0., 9.55336615e-02, 0., 0., 0., 0., 0., 0.,
          2.36433744e-01, 0., 7.16502368e-02, 0., 1.51993126e-01, 0., 0.,
          0., 0., 0., 0., 0., 0., 0., 0., 0., 0., 4.11466733e-02, 0.,
          1.16380379e-01, 0., 1.13153353e-01, 0., 0., 0., 0.,
          2.05733366e-02, 1.44013360e-01, 0., 4.36426327e-02, 0.,
          9.25800130e-02, 0., 0., 0., 0., 4.11466733e-02, 0., 0., 0.,
          1.02866687e-01, 0., 2.90950909e-02, 0., 0., 0., 0., 0., 0., 0.,
          0., 0., 0., 2.81408485e-02, 0., 0., 0., 3.09549332e-01, 0.,
          3.97971682e-02, 0., 0., 1.40704243e-02, 5.62816970e-02, 0., 0.,
          0., 1.40704244e-01, 0., 3.97971682e-02, 0., 0., 5.62816970e-02,
          0., 0., 0., 7.03521222e-02, 0., 0., 0., 0., 0., 0., 0., 0., 0.,
          0., 0., 0., 1.30744111e-02, 0., 0., 0., 2.09190577e-01, 0.,
          1.84900090e-02, 0., 0., 3.92232351e-02, 5.22976443e-02, 0., 0.,
          0., 6.53720573e-02, 0., 0., 0., 0., 1.30744115e-01, 0., 0., 0.,
          1.96116164e-01, 0., 0., 0., 0., 0., 0., 0., 0., 0., 0., 0., 0.,
          3.03865392e-02, 0., 5.72974086e-02, 0., 1.41803846e-01, 0.,
          1.43243521e-02, 0., 0., 5.06442338e-02, 1.01288468e-01, 0., 0.,
          0., 1.51932701e-01, 0., 0., 0., 0., 1.11417308e-01, 0., 0., 0.,
          1.01288468e-01, 0., 0., 0., 0., 0., 0., 0., 0., 0., 0., 0., 0.,
          5.01364134e-02, 0., 5.67228757e-02, 0., 1.80491090e-01, 0., 0.,
          0., 0., 1.20327391e-01, 1.10300109e-01, 0., 0., 0.,
          1.00272827e-01, 0., 0., 0., 0., 6.01636954e-02, 0.,
          5.67228757e-02, 0., 1.20327391e-01, 0., 0., 0., 0., 0., 0., 0.,
          0., 0., 0., 0., 0., 1.55557007e-01, 0., 1.83325689e-02, 0.,
          1.68520093e-01, 0., 0., 0., 0., 1.03704676e-01, 7.77785033e-02,
          0., 7.33302757e-02, 0., 1.55557007e-01, 0., 0., 0., 0.,
          3.88892516e-02, 0., 0., 0., 1.29630845e-02, 0., 3.66651379e-02,
          0., 0., 0., 0., 0., 0., 0., 0., 0., 0., 1.14731647e-01, 0.,
          6.08456396e-02, 0., 1.14731647e-01, 0., 0., 0., 0.,
          1.72097474e-01, 4.30243686e-02, 0., 0., 0., 1.43414559e-02, 0.,
          4.05637622e-02, 0., 0., 1.00390196e-01, 0., 0., 0.,
          1.72097474e-01, 0., 0., 0., 0., 0., 0., 0., 0., 0., 0., 0., 0.,
          1.35506943e-01, 0., 0., 0., 6.77534714e-02, 0., 6.38785809e-02,
          0., 0., 1.58091426e-01, 7.90457129e-02, 0., 0., 0.,
          1.35506943e-01, 0., 0., 0., 0., 2.14552656e-01, 0.,
          3.19392905e-02, 0., 0., 0., 0., 0., 0., 0., 0., 0., 0., 0., 0.,
          0., 0., 0., 0., 7.70848468e-02, 0., 0., 0., 0., 0., 0.,
          1.90775275e-01, 0., 0., 1.15627281e-01, 0., 0., 0., 0., 0., 0.,
          2.18028888e-01, 0., 0., 0., 2.18028888e-01, 0., 0., 0., 0., 0.,
          0., 0., 0., 0., 0., 0., 0., 1.64568290e-01, 0., 4.98717204e-02,
          0., 1.05793908e-01, 0., 0., 0., 0., 4.70195152e-02,
          1.88078061e-01, 0., 0., 0., 1.88078061e-01, 0., 0., 0., 0.,
          8.22841451e-02, 0., 0., 0., 2.35097576e-02, 0., 0., 0., 0., 0.,
          0., 0., 0., 0., 0., 0., 0., 7.59635195e-02, 0., 0., 0.,
          1.89908803e-01, 0., 5.37143163e-02, 0., 0., 7.59635195e-02,
          1.32936165e-01, 0., 0., 0., 3.79817598e-02, 0., 0., 0., 0.,
          5.69726378e-02, 0., 5.37143163e-02, 0., 2.27890551e-01, 0., 0.,
          0., 0., 0., 0., 0., 0., 0., 0., 0., 0., 5.11887744e-02, 0., 0.,
          0., 6.39859661e-02, 0., 0., 0., 0., 1.27971932e-01,
          3.83915789e-02, 0., 3.61959264e-02, 0., 1.53566316e-01, 0., 0.,
          0., 0., 2.55943872e-02, 0., 1.44783720e-01, 0., 1.66363508e-01,
          0., 0., 0., 0., 0., 0., 0., 0., 0., 0., 0., 0., 8.18439275e-02,
          0., 0., 0., 1.22765899e-01, 0., 0., 0., 0., 9.00283232e-02,
          1.63687859e-02, 0., 9.25958455e-02, 0., 1.06397107e-01, 0., 0.,
          0., 0., 3.27375717e-02, 0., 1.73617199e-01, 0., 1.55503467e-01,
          0., 4.62979190e-02, 0., 0., 0., 0., 0., 0., 0., 0., 0., 0.,
          9.19747949e-02, 0., 0., 0., 8.36134478e-02, 0., 0., 0., 0.,
          5.01680672e-02, 3.34453806e-02, 0., 1.77370921e-01, 0.,
          1.58865556e-01, 0., 4.72989082e-02, 0., 0., 3.34453806e-02, 0.,
          5.91236353e-02, 0., 1.17058828e-01, 0., 0., 0., 0., 0., 0., 0.,
          0., 0., 0., 0., 0., 7.89041519e-02, 0., 7.43915439e-02, 0.,
          1.57808304e-01, 0., 0., 0., 0., 3.94520760e-02, 5.26027679e-02,
          0., 9.29894298e-02, 0., 1.84109688e-01, 0., 0., 0., 0.,
          5.26027679e-02, 0., 7.43915439e-02, 0., 1.05205536e-01, 0.,
          3.71957719e-02, 0., 0., 0., 0., 0., 0., 0., 0., 0., 0.,
          4.46813256e-02, 0., 0., 0., 1.48937758e-02, 0., 4.21259589e-02,
          0., 0., 1.04256429e-01, 5.95751032e-02, 0., 8.42519179e-02, 0.,
          1.19150206e-01, 0., 4.21259589e-02, 0., 0., 1.34043977e-01, 0.,
          4.21259589e-02, 0., 1.34043977e-01, 0., 0., 0., 0., 0., 0., 0.,
          0., 0., 0., 0., 0., 8.60863402e-02, 0., 0., 0., 1.47576585e-01,
          0., 0., 0., 0., 2.33662933e-01, 1.10682443e-01, 0.,
          3.47841345e-02, 0., 1.10682443e-01, 0., 0., 0., 0.,
          1.72172680e-01, 0., 6.95682690e-02, 0., 0., 0., 0., 0., 0., 0.,
          0., 0., 0., 0., 0., 0., 0., 0., 0., 1.03299983e-01, 0., 0., 0.,
          0., 0., 0., 1.94784299e-01, 6.08700961e-02, 0., 6.88666478e-02,
          0., 6.08700961e-02, 0., 0., 0., 0., 1.94784299e-01, 0., 0., 0.,
          1.21740192e-01, 0., 0., 0., 0., 0., 0., 0., 0., 0., 0., 0., 0.,
          1.74237981e-01, 0., 0., 0., 1.74237981e-01, 0., 0., 0., 0.,
          7.62291178e-02, 1.74237981e-01, 0., 0., 0., 1.08898737e-01, 0.,
          0., 0., 0., 1.52458236e-01, 0., 1.54006062e-02, 0.,
          8.71189907e-02, 0., 1.54006062e-02, 0., 0., 0., 0., 0., 0., 0.,
          0., 0., 0., 7.41087049e-02, 0., 0., 0., 2.11739168e-02, 0., 0.,
          0., 0., 3.17608751e-02, 1.48217410e-01, 0., 1.49722192e-02, 0.,
          8.46956670e-02, 0., 1.49722192e-02, 0., 0., 1.27043501e-01, 0.,
          5.98888770e-02, 0., 1.16456538e-01, 0., 1.49722219e-01, 0., 0.,
          0., 0., 0., 0., 0., 0., 0., 0., 2.89580934e-02, 0.,
          2.73019522e-02, 0., 1.15832373e-01, 0., 0., 0., 0.,
          1.93053968e-02, 1.15832373e-01, 0., 5.46039045e-02, 0.,
          1.06179677e-01, 0., 1.36509776e-01, 0., 0., 2.89580934e-02, 0.,
          0., 0., 7.72215873e-02, 0., 5.46039045e-02, 0., 0., 0., 0., 0.,
          0., 0., 0., 0., 0., 1.94017906e-02, 0., 1.09753117e-01, 0.,
          1.26111642e-01, 0., 0., 0., 0., 3.88035811e-02, 2.91026868e-02,
          0., 0., 0., 7.76071623e-02, 0., 5.48765510e-02, 0., 0.,
          1.94017906e-02, 0., 2.74382755e-02, 0., 3.88035811e-02, 0.,
          1.37191378e-02, 0., 0., 0., 0., 0., 0., 0., 0., 0., 0.,
          4.53598201e-02, 0., 2.40556791e-01, 0., 2.15459153e-01, 0.,
          6.41484708e-02, 0., 0., 4.53598201e-02, 2.26799101e-02, 0.,
          3.20742354e-02, 0., 4.53598201e-02, 0., 1.60371177e-02, 0., 0.,
          3.40198651e-02, 0., 0., 0., 0., 0., 0., 0., 0., 0., 0., 0., 0.,
          0., 0., 0., 0., 7.46876895e-02, 0., 1.32030427e-01, 0.,
          2.61406898e-01, 0., 0., 0., 0., 7.46876895e-02, 5.60157672e-02,
          0., 0., 0., 0., 0., 0., 0., 0., 3.73438448e-02, 0., 0., 0.,
          5.60157672e-02, 0., 0., 0., 0., 0., 0., 0., 0., 0., 0., 0., 0.,
          6.10162094e-02, 0., 8.62899497e-02, 0., 1.22032419e-01, 0.,
          4.31449749e-02, 0., 0., 1.37286469e-01, 3.05081047e-02, 0., 0.,
          0., 4.57621589e-02, 0., 0., 0., 0., 1.67794585e-01, 0.,
          6.47174567e-02, 0., 6.10162094e-02, 0., 0., 0., 0., 0., 0., 0.,
          0., 0., 0., 0., 0., 1.41225383e-01, 0., 4.43828553e-02, 0.,
          1.41225383e-01, 0., 0., 0., 0., 2.19683930e-01, 1.72608793e-01,
          0., 6.65742755e-02, 0., 6.27668351e-02, 0., 0., 0., 0.,
          6.27668351e-02, 0., 0., 0., 0., 0., 0., 0., 0., 0., 0., 0., 0.,
          0., 0., 0., 0., 7.09367990e-02, 0., 8.02558213e-02, 0.,
          7.09367990e-02, 0., 0., 0., 0., 2.26997748e-01, 5.67494370e-02,
          0., 0., 0., 1.27686232e-01, 0., 0., 0., 0., 1.13498874e-01, 0.,
          0., 0., 7.09367990e-02, 0., 4.01279107e-02, 0., 0., 0., 0., 0.,
          0., 0., 0., 0., 0., 1.89382121e-01, 0., 0., 0., 1.18363827e-01,
          0., 0., 0., 0., 1.65709361e-01, 9.46910605e-02, 0., 0., 0.,
          5.91819137e-02, 0., 3.34783457e-02, 0., 0., 5.91819137e-02, 0.,
          3.34783457e-02, 0., 1.18363827e-01, 0., 0., 0., 0., 0., 0., 0.,
          0., 0., 0., 0., 0., 1.42443955e-01, 0., 1.43890120e-02, 0.,
          8.13965499e-02, 0., 1.43890120e-02, 0., 0., 1.22094817e-01,
          5.08728400e-02, 0., 2.87780240e-02, 0., 1.01745680e-01, 0., 0.,
          0., 0., 4.06982750e-02, 0., 0., 0., 6.10474087e-02, 0.,
          2.87780240e-02, 0., 0., 0., 0., 0., 0., 0., 0., 0., 0.,
          1.18512861e-01, 0., 5.58674969e-02, 0., 1.08636789e-01, 0.,
          1.39668763e-01, 0., 0., 2.96282154e-02, 3.95042859e-02, 0., 0.,
          0., 5.92564307e-02, 0., 2.79337484e-02, 0., 0., 9.87607148e-03,
          0., 2.79337484e-02, 0., 1.08636789e-01, 0., 1.39668763e-01, 0.,
          0., 0., 0., 0., 0., 0., 0., 0., 0., 3.14144418e-02, 0., 0., 0.,
          8.37718472e-02, 0., 5.92356361e-02, 0., 0., 2.09429618e-02,
          1.04714809e-02, 0., 2.96178181e-02, 0., 1.15186289e-01, 0.,
          1.48089111e-01, 0., 0., 6.28288835e-02, 0., 1.48089090e-02, 0.,
          1.15186289e-01, 0., 2.22133651e-01, 0., 0., 0., 0., 0., 0., 0.,
          0., 0., 0., 2.90102623e-02, 0., 4.10267040e-02, 0.,
          5.80205247e-02, 0., 2.05133520e-02, 0., 0., 4.35153916e-02,
          8.70307833e-02, 0., 2.05133520e-02, 0., 1.59556434e-01, 0.,
          3.07700306e-01, 0., 0., 1.01535916e-01, 0., 2.05133520e-02, 0.,
          2.90102623e-02, 0., 8.20534080e-02, 0., 0., 0., 0., 0., 0., 0.,
          0., 0., 0., 8.35666358e-02, 0., 0., 0., 0., 0., 0., 0., 0.,
          5.57110906e-02, 1.94988817e-01, 0., 3.93936895e-02, 0.,
          5.57110906e-02, 0., 1.57574758e-01, 0., 0., 1.94988817e-01, 0.,
          0., 0., 5.57110906e-02, 0., 7.87873790e-02, 0., 0., 0., 0., 0.,
          0., 0., 0., 0., 0., 2.97875553e-02, 0., 0., 0., 4.46813330e-02,
          0., 0., 0., 0., 1.63831547e-01, 1.04256444e-01, 0., 0., 0.,
          2.97875553e-02, 0., 4.21259627e-02, 0., 0., 2.82981783e-01, 0.,
          6.31889403e-02, 0., 7.44688883e-02, 0., 4.21259627e-02, 0., 0.,
          0., 0., 0., 0., 0., 0., 0., 0., 1.85454607e-01, 0.,
          7.15288371e-02, 0., 6.74380362e-02, 0., 0., 0., 0.,
          6.74380362e-02, 3.20330679e-01, 0., 7.15288371e-02, 0.,
          8.42975453e-02, 0., 4.76858914e-02, 0., 0., 8.42975453e-02, 0.,
          0., 0., 0., 0., 0., 0., 0., 0., 0., 0., 0., 0., 0., 0., 0.,
          5.36506958e-02, 0., 0., 0., 1.20714061e-01, 0., 0., 0., 0.,
          1.07301392e-01, 1.34126740e-02, 0., 1.89683847e-02, 0.,
          1.60952091e-01, 0., 1.13810316e-01, 0., 0., 6.70633689e-02, 0.,
          0., 0., 2.01190114e-01, 0., 3.79367694e-02, 0., 0., 0., 0., 0.,
          0., 0., 0., 0., 0., 1.04595289e-01, 0., 0., 0., 6.53720573e-02,
          0., 3.69800180e-02, 0., 0., 6.53720573e-02, 6.53720573e-02, 0.,
          0., 0., 1.96116164e-01, 0., 3.69800180e-02, 0., 0.,
          6.53720573e-02, 0., 0., 0., 1.96116164e-01, 0., 0., 0., 0., 0.,
          0., 0., 0., 0., 0., 0., 0., 6.88166320e-02, 0., 3.89285646e-02,
          0., 1.37633264e-01, 0., 0., 0., 0., 5.50533049e-02,
          6.88166320e-02, 0., 0., 0., 2.06449896e-01, 0., 0., 0., 0.,
          1.37633264e-01, 0., 0., 0., 1.65159911e-01, 0., 0., 0., 0., 0.,
          0., 0., 0., 0., 0., 0., 0., 5.01259491e-02, 0., 0., 0.,
          7.51889199e-02, 0., 3.54443975e-02, 0., 0., 1.25314873e-02,
          1.25314876e-01, 0., 0., 0., 1.50377840e-01, 0., 0., 0., 0.,
          7.51889199e-02, 0., 0., 0., 1.25314876e-01, 0., 0., 0., 0., 0.,
          0., 0., 0., 0., 0., 0., 0., 9.70758870e-03, 0., 2.74572056e-02,
          0., 1.06783472e-01, 0., 1.37286052e-01, 0., 0., 5.82455322e-02,
          5.82455322e-02, 0., 0., 0., 9.70758870e-02, 0., 0., 0., 0.,
          8.73682946e-02, 0., 0., 0., 7.76607096e-02, 0., 1.37286028e-02,
          0., 0., 0., 0., 0., 0., 0., 0., 0., 0., 7.02943727e-02, 0.,
          1.65685415e-02, 0., 1.28873020e-01, 0., 2.48528153e-01, 0., 0.,
          8.20101053e-02, 1.05441563e-01, 0., 0., 0., 9.37258303e-02, 0.,
          1.65685415e-02, 0., 0., 3.51471864e-02, 0., 3.31370831e-02, 0.,
          4.68629152e-02, 0., 1.65685415e-02, 0., 0., 0., 0., 0., 0., 0.,
          0., 0., 0., 1.20394617e-01, 0., 2.43233852e-02, 0.,
          3.43984626e-02, 0., 9.72935408e-02, 0., 0., 1.20394617e-01,
          5.15976921e-02, 0., 4.86467704e-02, 0., 6.87969252e-02, 0.,
          2.43233852e-02, 0., 0., 1.37593850e-01, 0., 0., 0.,
          1.89191550e-01, 0., 0., 0., 0., 0., 0., 0., 0., 0., 0., 0., 0.,
          8.31925645e-02, 0., 0., 0., 2.37693042e-02, 0., 3.36148739e-02,
          0., 0., 2.25808397e-01, 9.50772166e-02, 0., 0., 0.,
          1.30731180e-01, 0., 0., 0., 0., 1.90154433e-01, 0.,
          5.04223034e-02, 0., 2.37693042e-02, 0., 0., 0., 0., 0., 0., 0.,
          0., 0., 0., 0., 0., 3.04908842e-01, 0., 6.80851862e-02, 0.,
          8.02391693e-02, 0., 4.53901291e-02, 0., 0., 8.02391693e-02,
          2.56765336e-01, 0., 6.80851862e-02, 0., 3.20956670e-02, 0., 0.,
          0., 0., 6.41913339e-02, 0., 0., 0., 0., 0., 0., 0., 0., 0., 0.,
          0., 0., 0., 0., 0., 0., 1.55316228e-02, 0., 2.19650306e-02, 0.,
          1.86379477e-01, 0., 1.31790191e-01, 0., 0., 7.76581094e-02,
          3.10632456e-02, 0., 2.19650306e-02, 0., 9.31897387e-02, 0.,
          4.39300612e-02, 0., 0., 1.55316228e-02, 0., 0., 0.,
          6.21264912e-02, 0., 2.19650306e-02, 0., 0., 0., 0., 0., 0., 0.,
          0., 0., 0., 7.87584186e-02, 0., 0., 0., 2.36275241e-01, 0.,
          4.45524864e-02, 0., 0., 7.87584186e-02, 1.57516841e-02, 0., 0.,
          0., 6.30067363e-02, 0., 2.22762432e-02, 0., 0., 0., 0.,
          4.45524864e-02, 0., 1.57516837e-01, 0., 2.22762432e-02, 0., 0.,
          0., 0., 0., 0., 0., 0., 0., 0., 6.70633689e-02, 0., 0., 0.,
          2.01190114e-01, 0., 0., 0., 0., 1.34126738e-01, 0., 0.,
          3.79367694e-02, 0., 1.34126738e-01, 0., 1.89683847e-02, 0., 0.,
          0., 0., 0., 0., 9.38887149e-02, 0., 1.51747093e-01, 0., 0., 0.,
          0., 0., 0., 0., 0., 0., 0., 1.24667756e-01, 0., 0., 0.,
          1.49601310e-01, 0., 0., 0., 0., 7.48006552e-02, 0., 0., 0., 0.,
          8.72674286e-02, 0., 1.41045466e-01, 0., 0., 3.74003276e-02, 0.,
          0., 0., 1.37134522e-01, 0., 1.23414785e-01, 0., 0., 0., 0., 0.,
          0., 0., 0., 0., 0., 8.13802928e-02, 0., 0., 0., 1.35633811e-01,
          0., 0., 0., 0., 1.22070432e-01, 4.06901464e-02, 0., 0., 0.,
          1.49197206e-01, 0., 1.34270638e-01, 0., 0., 9.49436724e-02, 0.,
          0., 0., 9.49436724e-02, 0., 1.91815179e-02, 0., 0., 0., 0., 0.,
          0., 0., 0., 0., 0., 1.43476784e-01, 0., 0., 0., 1.27534926e-01,
          0., 2.25452017e-02, 0., 0., 4.78255935e-02, 1.11593053e-01, 0.,
          0., 0., 1.11593053e-01, 0., 2.25452017e-02, 0., 0.,
          9.56511870e-02, 0., 2.25452017e-02, 0., 9.56511870e-02, 0.,
          6.76356032e-02, 0., 0., 0., 0., 0., 0., 0., 0., 0., 0.,
          4.20676507e-02, 0., 3.96617614e-02, 0., 5.60902022e-02, 0.,
          1.98308807e-02, 0., 0., 1.12180404e-01, 8.41353014e-02, 0.,
          1.98308807e-02, 0., 8.41353014e-02, 0., 5.94926402e-02, 0., 0.,
          1.26202956e-01, 0., 1.98308807e-02, 0., 1.82293162e-01, 0., 0.,
          0., 0., 0., 0., 0., 0., 0., 0., 0., 0., 1.03474542e-01, 0., 0.,
          0., 1.42277494e-01, 0., 0., 0., 0., 2.06949085e-01,
          1.16408862e-01, 0., 1.82918869e-02, 0., 1.68146133e-01, 0., 0.,
          0., 0., 9.05402228e-02, 0., 7.31675476e-02, 0., 0., 0., 0., 0.,
          0., 0., 0., 0., 0., 0., 0., 0., 0., 4.11316395e-01, 0.,
          1.09066725e-01, 0., 5.14145494e-02, 0., 0., 0., 0.,
          1.02829099e-01, 1.79950923e-01, 0., 1.45422310e-01, 0., 0., 0.,
          0., 0., 0., 0., 0., 0., 0., 0., 0., 0., 0., 0., 0., 0., 0., 0.,
          0., 0., 0., 0., 1.07199207e-01, 0., 7.58012831e-02, 0.,
          3.21597606e-01, 0., 1.51602566e-01, 0., 0., 5.35996035e-02, 0.,
          0., 0., 0., 0., 0., 0., 0., 0., 0., 0., 0., 0., 0., 0., 0., 0.,
          0., 0., 0., 0., 0., 0., 0., 0., 0., 4.84100804e-02, 0., 0., 0.,
          1.93640321e-01, 0., 6.84621930e-02, 0., 0., 0., 0., 0., 0., 0.,
          0., 0., 0., 0., 0., 0., 0., 0., 0., 0., 0., 0., 0., 0., 0., 0.,
          0., 0., 0., 0., 0., 0., 0., 0., 8.68778899e-02, 0.,
          3.07159752e-01, 0., 4.34389450e-02, 0., 0., 0., 0., 0., 0., 0.,
          0., 0., 0., 0., 0., 0., 0., 0., 0., 0., 0., 0., 0., 0., 0., 0.,
          0., 0., 0., 0., 0., 0., 0., 0., 0., 0., 1.55411780e-01, 0.,
          2.51183361e-01, 0., 0., 6.66050464e-02, 0., 0., 0., 0., 0., 0.,
          0., 0., 0., 0., 0., 0., 0., 0., 0., 6.27958402e-02, 0., 0., 0.,
          0., 0., 0., 0., 0., 0., 0., 4.67193648e-02, 0., 0., 0.,
          1.71304345e-01, 0., 1.54166043e-01, 0., 0., 1.09011851e-01, 0.,
          0., 0., 0., 0., 0., 4.40474376e-02, 0., 0., 2.02450588e-01, 0.,
          0., 0., 3.11462432e-02, 0., 1.10118605e-01, 0., 0., 0., 0., 0.,
          0., 0., 0., 0., 0., 1.12644993e-01, 0., 0., 0., 1.12644993e-01,
          0., 2.27577239e-02, 0., 0., 9.65528488e-02, 2.09197834e-01, 0.,
          0., 0., 3.21842842e-02, 0., 1.13788627e-01, 0., 0.,
          1.60921421e-02, 0., 0., 0., 9.65528488e-02, 0., 0., 0., 0., 0.,
          0., 0., 0., 0., 0., 0., 0., 9.94798690e-02, 0., 2.34476291e-02,
          0., 9.94798690e-02, 0., 7.03428835e-02, 0., 0., 1.49219811e-01,
          1.65799782e-02, 0., 0., 0., 9.94798690e-02, 0., 0., 0., 0.,
          8.28998908e-02, 0., 7.03428835e-02, 0., 4.97399345e-02, 0., 0.,
          0., 0., 0., 0., 0., 0., 0., 0., 0., 0., 1.56368509e-01, 0.,
          2.45709401e-02, 0., 2.25865632e-01, 0., 0., 0., 0.,
          1.21619955e-01, 8.68713930e-02, 0., 7.37128183e-02, 0.,
          5.21228351e-02, 0., 0., 0., 0., 8.68713930e-02, 0.,
          7.37128183e-02, 0., 0., 0., 0., 0., 0., 0., 0., 0., 0., 0., 0.,
          0., 0., 3.19642067e-01, 0., 2.58309811e-01, 0., 0., 0., 0., 0.,
          0., 0., 2.28315771e-01, 0., 1.93732336e-01, 0., 0., 0., 0., 0.,
          0., 0., 0., 0., 0., 0., 0., 0., 0., 0., 0., 0., 0., 0., 0., 0.,
          0., 0. ]
      - [ 0., 0., 0., 0., 0., 0., 0., 0., 0., 0., 0., 0., 1.14381917e-01,
          0., 0., 0., 0., 0., 0., 4.04401161e-02, 0., 4.00336742e-01, 0.,
          4.44841266e-01, 0., 0., 0., 0., 0., 0., 0., 0., 0., 0., 0., 0.,
          0., 0., 0., 0., 0., 0., 0., 0., 0., 0., 2.20683776e-02, 0.,
          2.18465805e-01, 0., 2.42752165e-01, 0., 0., 0., 0., 0., 0., 0.,
          0., 4.85504329e-01, 0., 3.12093981e-02, 0., 0., 0., 0., 0., 0.,
          0., 0., 0., 0., 0., 0., 0., 0., 0., 0., 0., 0., 0., 0., 0., 0.,
          0., 0., 5.41114151e-01, 0., 3.47841345e-02, 0., 0., 0., 0.,
          3.47841345e-02, 0., 3.19749266e-01, 0., 6.95682690e-02, 0., 0.,
          0., 0., 0., 0., 0., 0., 0., 0., 0., 0., 0., 0., 0., 0., 0., 0.,
          0., 0., 0., 0., 3.63555774e-02, 0., 3.34194571e-01, 0.,
          7.27111548e-02, 0., 0., 5.14145494e-02, 0., 1.45422310e-01, 0.,
          3.59901845e-01, 0., 0., 0., 0., 0., 0., 0., 0., 0., 0., 0., 0.,
          0., 0., 0., 0., 0., 0., 0., 0., 0., 0., 3.72245908e-02, 0.,
          1.05287045e-01, 0., 2.60572135e-01, 0., 0., 0., 0.,
          9.30614844e-02, 0., 1.05287045e-01, 0., 3.35021347e-01, 0., 0.,
          0., 0., 0., 0., 0., 0., 0., 0., 0., 0., 0., 0., 1.79862641e-02,
          0., 2.54364181e-02, 0., 0., 0., 0., 1.27182091e-02,
          6.35910481e-02, 0., 7.19450563e-02, 0., 2.28927776e-01, 0., 0.,
          0., 0., 1.65336728e-01, 0., 3.59725282e-02, 0., 1.90773144e-01,
          0., 0., 0., 0., 0., 0., 0., 0., 0., 0., 0., 0., 1.24667762e-02,
          0., 1.58676177e-01, 0., 2.49335524e-02, 0., 0., 0., 0.,
          8.72674361e-02, 1.62068099e-01, 0., 3.52613665e-02, 0.,
          1.87001646e-01, 0., 0., 0., 0., 1.12200990e-01, 0.,
          3.52613665e-02, 0., 8.72674361e-02, 0., 0., 0., 0., 0., 0., 0.,
          0., 0., 0., 0., 0., 9.31567922e-02, 0., 3.76410261e-02, 0.,
          6.65405616e-02, 0., 0., 0., 0., 6.65405616e-02, 1.19773015e-01,
          0., 3.76410261e-02, 0., 9.31567922e-02, 0., 0., 0., 0.,
          1.06464900e-01, 0., 0., 0., 1.06464900e-01, 0., 3.76410261e-02,
          0., 0., 0., 0., 0., 0., 0., 0., 0., 0., 6.22008331e-02, 0., 0.,
          0., 1.49282008e-01, 0., 7.03722090e-02, 0., 0., 1.24401666e-01,
          9.95213389e-02, 0., 0., 0., 9.95213389e-02, 0., 3.51861045e-02,
          0., 0., 2.23922998e-01, 0., 5.27791530e-02, 0., 0., 0., 0., 0.,
          0., 0., 0., 0., 0., 0., 0., 0., 0., 0., 0., 4.85873818e-02, 0.,
          0., 0., 0., 0., 0., 1.71782337e-02, 0., 0., 7.28810728e-02, 0.,
          0., 0., 0., 0., 0., 2.92029977e-01, 0., 7.28810728e-02, 0.,
          1.37425870e-01, 0., 0., 0., 0., 0., 0., 0., 0., 0., 0., 0., 0.,
          1.13674384e-02, 0., 1.12531908e-01, 0., 1.25041828e-01, 0., 0.,
          0., 0., 0., 1.93246454e-01, 0., 4.82279547e-02, 0.,
          9.09395069e-02, 0., 0., 0., 0., 3.41023169e-02, 0.,
          1.60759855e-02, 0., 1.02306947e-01, 0., 0., 0., 0., 0., 0., 0.,
          0., 0., 0., 0., 0., 0., 0., 0., 0., 2.82415211e-01, 0.,
          1.81543361e-02, 0., 0., 0., 3.85111645e-02, 0., 1.81543361e-02,
          0., 1.15533493e-01, 0., 0., 0., 0., 1.28370553e-01, 0., 0., 0.,
          1.41207606e-01, 0., 3.63086723e-02, 0., 0., 0., 0., 0., 0., 0.,
          0., 0., 0., 0., 0., 1.63063221e-02, 0., 1.49894044e-01, 0.,
          3.26126441e-02, 0., 0., 2.30606236e-02, 1.15303114e-01, 0., 0.,
          0., 1.26833424e-01, 0., 3.26126441e-02, 0., 0., 1.15303114e-01,
          0., 0., 0., 1.61424354e-01, 0., 0., 0., 0., 0., 0., 0., 0., 0.,
          0., 0., 0., 2.03430429e-02, 0., 5.75388111e-02, 0.,
          1.42401293e-01, 0., 0., 0., 0., 5.08576073e-02, 1.01715215e-01,
          0., 0., 0., 1.42401293e-01, 0., 0., 0., 0., 1.32229775e-01, 0.,
          0., 0., 1.11886732e-01, 0., 0., 0., 0., 0., 0., 0., 0., 0., 0.,
          0., 0., 4.66669835e-02, 0., 5.27976602e-02, 0., 1.68001130e-01,
          0., 0., 0., 0., 1.21334150e-01, 1.21334150e-01, 0., 0., 0.,
          1.02667361e-01, 0., 0., 0., 0., 4.66669835e-02, 0.,
          5.27976602e-02, 0., 1.21334150e-01, 0., 0., 0., 0., 0., 0., 0.,
          0., 0., 0., 0., 0., 1.60212681e-01, 0., 3.48576829e-02, 0.,
          1.84860781e-01, 0., 0., 0., 0., 1.10916473e-01, 6.16202615e-02,
          0., 6.97153658e-02, 0., 1.60212681e-01, 0., 0., 0., 0.,
          4.92962077e-02, 0., 1.74288414e-02, 0., 1.23240519e-02, 0.,
          1.74288414e-02, 0., 0., 0., 0., 0., 0., 0., 0., 0., 0.,
          1.39566734e-01, 0., 4.38615941e-02, 0., 1.08551905e-01, 0., 0.,
          0., 0., 1.24059319e-01, 6.20296597e-02, 0., 2.19307970e-02, 0.,
          1.55074149e-02, 0., 2.19307970e-02, 0., 0., 1.24059319e-01, 0.,
          0., 0., 1.70581564e-01, 0., 0., 0., 0., 0., 0., 0., 0., 0., 0.,
          0., 0., 9.88881439e-02, 0., 0., 0., 9.88881439e-02, 0.,
          3.49622369e-02, 0., 0., 2.22498327e-01, 9.88881439e-02, 0., 0.,
          0., 1.35971203e-01, 0., 0., 0., 0., 2.22498327e-01, 0.,
          3.49622369e-02, 0., 0., 0., 0., 0., 0., 0., 0., 0., 0., 0., 0.,
          0., 0., 0., 0., 6.09957390e-02, 0., 0., 0., 0., 0., 0.,
          2.44406179e-01, 0., 0., 1.01659574e-01, 0., 0., 0., 0., 0., 0.,
          2.15652511e-01, 0., 0., 0., 2.01275676e-01, 0., 0., 0., 0., 0.,
          0., 0., 0., 0., 0., 0., 0., 1.96565256e-01, 0., 4.90562171e-02,
          0., 9.25012976e-02, 0., 0., 0., 0., 3.46879885e-02,
          1.73439935e-01, 0., 0., 0., 1.61877275e-01, 0., 0., 0., 0.,
          1.04063965e-01, 0., 0., 0., 3.46879885e-02, 0., 3.27041484e-02,
          0., 0., 0., 0., 0., 0., 0., 0., 0., 0., 4.36503775e-02, 0.,
          2.05769856e-02, 0., 1.30951136e-01, 0., 0., 0., 0.,
          1.45501256e-01, 1.30951136e-01, 0., 0., 0., 4.36503775e-02, 0.,
          4.11539711e-02, 0., 0., 2.91002523e-02, 0., 8.23079422e-02, 0.,
          1.30951136e-01, 0., 0., 0., 0., 0., 0., 0., 0., 0., 0., 0., 0.,
          1.02430247e-01, 0., 0., 0., 1.12673275e-01, 0., 2.89716478e-02,
          0., 0., 1.02430247e-01, 2.04860494e-02, 0., 5.79432957e-02, 0.,
          9.21872258e-02, 0., 0., 0., 0., 0., 0., 1.44858256e-01, 0.,
          1.94617465e-01, 0., 0., 0., 0., 0., 0., 0., 0., 0., 0., 0., 0.,
          7.50441775e-02, 0., 0., 0., 1.05061851e-01, 0., 0., 0., 0.,
          9.75574329e-02, 0., 0., 1.06128506e-01, 0., 1.42583936e-01, 0.,
          0., 0., 0., 3.75220887e-02, 0., 1.37967050e-01, 0.,
          1.20070688e-01, 0., 9.55156535e-02, 0., 0., 0., 0., 0., 0., 0.,
          0., 0., 0., 1.05119266e-01, 0., 0., 0., 8.89470652e-02, 0., 0.,
          0., 0., 4.04304862e-02, 4.04304862e-02, 0., 1.48661092e-01, 0.,
          1.29377559e-01, 0., 1.02919221e-01, 0., 0., 2.42582913e-02, 0.,
          8.00482780e-02, 0., 8.89470652e-02, 0., 0., 0., 0., 0., 0., 0.,
          0., 0., 0., 0., 0., 6.83875754e-02, 0., 7.73717016e-02, 0.,
          1.77807689e-01, 0., 0., 0., 0., 5.47100566e-02, 4.10325415e-02,
          0., 1.35400489e-01, 0., 1.50452659e-01, 0., 0., 0., 0.,
          2.73550283e-02, 0., 1.16057560e-01, 0., 4.10325415e-02, 0.,
          5.80287762e-02, 0., 0., 0., 0., 0., 0., 0., 0., 0., 0.,
          6.31066337e-02, 0., 2.23115645e-02, 0., 1.57766584e-02, 0.,
          2.23115645e-02, 0., 0., 1.26213267e-01, 3.15533169e-02, 0.,
          1.33869395e-01, 0., 4.73299772e-02, 0., 6.69346899e-02, 0., 0.,
          1.41989931e-01, 0., 4.46231291e-02, 0., 1.10436611e-01, 0., 0.,
          0., 0., 0., 0., 0., 0., 0., 0., 0., 0., 9.83843952e-02, 0., 0.,
          0., 1.35278538e-01, 0., 0., 0., 0., 2.21364886e-01,
          1.10682443e-01, 0., 3.47841345e-02, 0., 8.60863402e-02, 0., 0.,
          0., 0., 2.09066838e-01, 0., 6.95682690e-02, 0., 0., 0., 0., 0.,
          0., 0., 0., 0., 0., 0., 0., 0., 0., 0., 0., 9.99756157e-02, 0.,
          0., 0., 0., 0., 0., 2.12080300e-01, 7.06934333e-02, 0.,
          7.99804926e-02, 0., 5.65547459e-02, 0., 0., 0., 0.,
          1.69664249e-01, 0., 0., 0., 1.13109492e-01, 0., 0., 0., 0., 0.,
          0., 0., 0., 0., 0., 0., 0., 1.59043685e-01, 0., 0., 0.,
          1.48440778e-01, 0., 0., 0., 0., 9.54262093e-02, 1.27234951e-01,
          0., 0., 0., 8.48232955e-02, 0., 0., 0., 0., 1.48440778e-01, 0.,
          5.99791296e-02, 0., 8.48232955e-02, 0., 2.99895648e-02, 0., 0.,
          0., 0., 0., 0., 0., 0., 0., 0., 8.33239257e-02, 0., 0., 0.,
          2.77746413e-02, 0., 2.61861831e-02, 0., 0., 1.85164288e-02,
          1.29614994e-01, 0., 5.23723662e-02, 0., 7.40657151e-02, 0.,
          2.61861831e-02, 0., 0., 8.33239257e-02, 0., 7.85585567e-02, 0.,
          1.20356783e-01, 0., 1.44024014e-01, 0., 0., 0., 0., 0., 0., 0.,
          0., 0., 0., 1.75574590e-02, 0., 4.96599935e-02, 0.,
          7.90085718e-02, 0., 0., 0., 0., 0., 7.90085718e-02, 0.,
          7.44899958e-02, 0., 1.14123486e-01, 0., 1.36565000e-01, 0., 0.,
          8.77872948e-03, 0., 1.24149984e-02, 0., 8.77873003e-02, 0.,
          4.96599935e-02, 0., 0., 0., 0., 0., 0., 0., 0., 0., 0., 0., 0.,
          1.27229720e-01, 0., 1.70933485e-01, 0., 0., 0., 0.,
          4.49824966e-02, 8.99649970e-03, 0., 1.27229718e-02, 0.,
          8.99649933e-02, 0., 5.08918874e-02, 0., 0., 0., 0.,
          1.27229718e-02, 0., 4.49824966e-02, 0., 1.27229718e-02, 0., 0.,
          0., 0., 0., 0., 0., 0., 0., 0., 5.96369617e-02, 0.,
          2.19282448e-01, 0., 1.90838277e-01, 0., 1.51810929e-01, 0., 0.,
          3.57821770e-02, 0., 0., 1.68678798e-02, 0., 5.96369617e-02, 0.,
          1.68678798e-02, 0., 0., 0., 0., 0., 0., 0., 0., 0., 0., 0., 0.,
          0., 0., 0., 0., 0., 0., 0., 5.87755553e-02, 0., 1.93949446e-01,
          0., 2.15510368e-01, 0., 0., 0., 0., 3.91837023e-02, 0., 0., 0.,
          0., 0., 0., 0., 0., 0., 1.95918512e-02, 0., 2.77070608e-02, 0.,
          1.37142956e-01, 0., 0., 0., 0., 0., 0., 0., 0., 0., 0., 0., 0.,
          3.21475193e-02, 0., 1.36390373e-01, 0., 4.82212789e-02, 0.,
          6.81951791e-02, 0., 0., 1.44663826e-01, 1.60737596e-02, 0.,
          2.27317270e-02, 0., 1.12516314e-01, 0., 0., 0., 0.,
          1.60737589e-01, 0., 4.54634540e-02, 0., 3.21475193e-02, 0.,
          2.27317270e-02, 0., 0., 0., 0., 0., 0., 0., 0., 0., 0.,
          1.43476769e-01, 0., 4.50903997e-02, 0., 1.11593045e-01, 0., 0.,
          0., 0., 2.71011680e-01, 1.59418643e-01, 0., 4.50903997e-02, 0.,
          3.18837278e-02, 0., 2.25451998e-02, 0., 0., 7.97093213e-02, 0.,
          0., 0., 0., 0., 0., 0., 0., 0., 0., 0., 0., 0., 0., 0., 0.,
          7.94918984e-02, 0., 8.99348110e-02, 0., 6.35935143e-02, 0., 0.,
          0., 0., 1.90780550e-01, 4.76951376e-02, 0., 0., 0.,
          9.53902751e-02, 0., 0., 0., 0., 1.74882174e-01, 0.,
          2.24837027e-02, 0., 6.35935143e-02, 0., 4.49674055e-02, 0., 0.,
          0., 0., 0., 0., 0., 0., 0., 0., 1.33631796e-01, 0., 0., 0.,
          8.90878662e-02, 0., 0., 0., 0., 1.55903757e-01, 1.22495808e-01,
          0., 1.57486573e-02, 0., 4.45439331e-02, 0., 3.14973146e-02, 0.,
          0., 8.90878662e-02, 0., 7.87432939e-02, 0., 5.56799136e-02, 0.,
          0., 0., 0., 0., 0., 0., 0., 0., 0., 0., 0., 1.24068789e-01, 0.,
          5.01313619e-02, 0., 7.08964542e-02, 0., 2.50656810e-02, 0., 0.,
          7.97585100e-02, 7.08964542e-02, 0., 6.26642033e-02, 0.,
          4.43102829e-02, 0., 0., 0., 0., 3.54482271e-02, 0., 0., 0.,
          7.08964542e-02, 0., 3.75985205e-02, 0., 0., 0., 0., 0., 0., 0.,
          0., 0., 0., 8.77210274e-02, 0., 8.27041790e-02, 0.,
          1.26708150e-01, 0., 1.51624337e-01, 0., 0., 9.74678062e-03,
          3.89871225e-02, 0., 0., 0., 7.79742450e-02, 0., 4.13520858e-02,
          0., 0., 4.87339050e-02, 0., 1.37840295e-02, 0., 1.26708150e-01,
          0., 2.75680590e-02, 0., 0., 0., 0., 0., 0., 0., 0., 0., 0.,
          1.11396350e-02, 0., 1.57538224e-02, 0., 1.11396350e-01, 0.,
          6.30152896e-02, 0., 0., 0., 5.56981750e-02, 0., 1.57538224e-02,
          0., 1.44815251e-01, 0., 3.15076448e-02, 0., 0., 5.56981750e-02,
          0., 1.57538224e-02, 0., 1.55954897e-01, 0., 2.36307368e-01, 0.,
          0., 0., 0., 0., 0., 0., 0., 0., 0., 0., 0., 2.12577656e-02, 0.,
          7.51575530e-02, 0., 2.12577656e-02, 0., 0., 0., 7.51575530e-02,
          0., 2.12577656e-02, 0., 2.10441142e-01, 0., 3.18866491e-01, 0.,
          0., 6.01260401e-02, 0., 0., 0., 9.01890621e-02, 0.,
          1.06288828e-01, 0., 0., 0., 0., 0., 0., 0., 0., 0., 0., 0., 0.,
          0., 0., 0., 0., 0., 0., 0., 2.32717469e-02, 9.30869877e-02, 0.,
          0., 0., 1.39630482e-01, 0., 1.64556101e-01, 0., 0.,
          2.32717469e-02, 0., 9.87336487e-02, 0., 1.62902221e-01, 0.,
          9.87336487e-02, 0., 0., 0., 0., 0., 0., 0., 0., 0., 0.,
